FANN_FLO_2.1
num_layers=3
learning_rate=0.700000
connection_rate=1.000000
network_type=0
learning_momentum=0.000000
training_algorithm=2
train_error_function=1
train_stop_function=0
cascade_output_change_fraction=0.010000
quickprop_decay=-0.000100
quickprop_mu=1.750000
rprop_increase_factor=1.200000
rprop_decrease_factor=0.500000
rprop_delta_min=0.000000
rprop_delta_max=50.000000
rprop_delta_zero=0.100000
cascade_output_stagnation_epochs=12
cascade_candidate_change_fraction=0.010000
cascade_candidate_stagnation_epochs=12
cascade_max_out_epochs=150
cascade_min_out_epochs=50
cascade_max_cand_epochs=150
cascade_min_cand_epochs=50
cascade_num_candidate_groups=2
bit_fail_limit=3.49999994039535522461e-01
cascade_candidate_limit=1.00000000000000000000e+03
cascade_weight_multiplier=4.00000005960464477539e-01
cascade_activation_functions_count=10
cascade_activation_functions=3 5 7 8 10 11 14 15 16 17 
cascade_activation_steepnesses_count=4
cascade_activation_steepnesses=2.50000000000000000000e-01 5.00000000000000000000e-01 7.50000000000000000000e-01 1.00000000000000000000e+00 
layer_sizes=6 15 5 
scale_included=0
neurons (num_inputs, activation_function, activation_steepness)=(0, 0, 0.00000000000000000000e+00) (0, 0, 0.00000000000000000000e+00) (0, 0, 0.00000000000000000000e+00) (0, 0, 0.00000000000000000000e+00) (0, 0, 0.00000000000000000000e+00) (0, 0, 0.00000000000000000000e+00) (6, 5, 5.00000000000000000000e-01) (6, 5, 5.00000000000000000000e-01) (6, 5, 5.00000000000000000000e-01) (6, 5, 5.00000000000000000000e-01) (6, 5, 5.00000000000000000000e-01) (6, 5, 5.00000000000000000000e-01) (6, 5, 5.00000000000000000000e-01) (6, 5, 5.00000000000000000000e-01) (6, 5, 5.00000000000000000000e-01) (6, 5, 5.00000000000000000000e-01) (6, 5, 5.00000000000000000000e-01) (6, 5, 5.00000000000000000000e-01) (6, 5, 5.00000000000000000000e-01) (6, 5, 5.00000000000000000000e-01) (0, 5, 0.00000000000000000000e+00) (15, 5, 5.00000000000000000000e-01) (15, 5, 5.00000000000000000000e-01) (15, 5, 5.00000000000000000000e-01) (15, 5, 5.00000000000000000000e-01) (0, 5, 0.00000000000000000000e+00) 
connections (connected_to_neuron, weight)=(0, -7.27465286254882812500e+01) (1, 8.23234379291534423828e-01) (2, 4.31477800011634826660e-02) (3, -3.21243762969970703125e-01) (4, 1.50000000000000000000e+03) (5, 2.53460824489593505859e-01) (0, -4.69473999023437500000e+02) (1, 1.87766563892364501953e+00) (2, -1.03688567876815795898e-01) (3, 6.63337051868438720703e-01) (4, 1.50000000000000000000e+03) (5, 3.07557010091841220856e-03) (0, 9.95528888702392578125e+00) (1, -4.23679542541503906250e+00) (2, -1.12543059512972831726e-02) (3, 1.45194143056869506836e-01) (4, 1.50000000000000000000e+03) (5, 2.86393463611602783203e-01) (0, -7.20717315673828125000e+01) (1, 1.28690648078918457031e+00) (2, 5.30677661299705505371e-02) (3, 3.39301466941833496094e-01) (4, 1.50000000000000000000e+03) (5, 1.81606069207191467285e-01) (0, 1.50000000000000000000e+03) (1, -1.38610217285156250000e+03) (2, 1.49378564453125000000e+03) (3, -1.45087561035156250000e+03) (4, 1.50000000000000000000e+03) (5, 1.49463073730468750000e+03) (0, 1.50000000000000000000e+03) (1, -1.48209399414062500000e+03) (2, 1.49346984863281250000e+03) (3, -1.48209399414062500000e+03) (4, 1.50000000000000000000e+03) (5, 1.39799560546875000000e+03) (0, 1.50000000000000000000e+03) (1, -1.48209399414062500000e+03) (2, 1.49327648925781250000e+03) (3, -1.48907421875000000000e+03) (4, 1.50000000000000000000e+03) (5, 1.49463073730468750000e+03) (0, -1.46061096191406250000e+03) (1, 3.23735237121582031250e+01) (2, -8.28968957066535949707e-02) (3, 1.91309526562690734863e-01) (4, 1.50000000000000000000e+03) (5, 2.94346392154693603516e-01) (0, -7.85815185546875000000e+02) (1, 2.33820419311523437500e+01) (2, 3.42750437557697296143e-02) (3, 6.15089416503906250000e-01) (4, 1.50000000000000000000e+03) (5, -1.47545590996742248535e-01) (0, -7.04193115234375000000e+01) (1, 9.57214236259460449219e-01) (2, 9.60298180580139160156e-02) (3, -2.49966835975646972656e+00) (4, 1.50000000000000000000e+03) (5, 4.23446148633956909180e-01) (0, 1.50000000000000000000e+03) (1, -1.47010729980468750000e+03) (2, 1.48652990722656250000e+03) (3, -1.47953198242187500000e+03) (4, 1.50000000000000000000e+03) (5, 1.49776330566406250000e+03) (0, -1.71339588165283203125e+01) (1, 1.22875337600708007812e+01) (2, 1.47887766361236572266e-01) (3, 6.10389709472656250000e-01) (4, 1.50000000000000000000e+03) (5, 9.36408415436744689941e-02) (0, -1.39529895019531250000e+03) (1, 1.50000000000000000000e+03) (2, -1.21202537536621093750e+02) (3, 1.74318637847900390625e+01) (4, 1.50000000000000000000e+03) (5, -4.79431629180908203125e+00) (0, -1.39529895019531250000e+03) (1, 1.50000000000000000000e+03) (2, -1.50000000000000000000e+03) (3, 1.50000000000000000000e+03) (4, 1.50000000000000000000e+03) (5, -1.50000000000000000000e+03) (6, 2.92601165771484375000e+02) (7, 3.57057403564453125000e+02) (8, -9.26683166503906250000e+02) (9, 1.18007308959960937500e+02) (10, 1.97781097412109375000e+02) (11, 1.17843032836914062500e+02) (12, 1.97745071411132812500e+02) (13, 2.92796905517578125000e+02) (14, 3.57338348388671875000e+02) (15, 1.18060745239257812500e+02) (16, 1.97629074096679687500e+02) (17, 1.18183883666992187500e+02) (18, 9.35870544433593750000e+02) (19, 1.50000000000000000000e+03) (20, 1.97708297729492187500e+02) (6, 2.62479215860366821289e-01) (7, 4.51956653594970703125e+00) (8, 1.27240839004516601562e+01) (9, 6.06533624231815338135e-02) (10, -1.40601742267608642578e+00) (11, -6.72991633415222167969e-01) (12, -1.28331172466278076172e+00) (13, 3.70439243316650390625e+00) (14, 1.82873702049255371094e+00) (15, 4.12110760807991027832e-02) (16, -1.22553884983062744141e+00) (17, 1.91725879907608032227e-01) (18, 8.48547518253326416016e-01) (19, 2.29302835464477539062e+00) (20, -1.32432353496551513672e+00) (6, -1.08009386062622070312e+00) (7, -5.03760576248168945312e-01) (8, 3.56402218341827392578e-01) (9, -3.10994774103164672852e-01) (10, -1.34769701957702636719e+00) (11, -4.56118851900100708008e-01) (12, -1.36111044883728027344e+00) (13, -4.46577280759811401367e-01) (14, -6.60702753067016601562e+00) (15, -5.73665976524353027344e-01) (16, -1.29150784015655517578e+00) (17, 1.27330932617187500000e+01) (18, 4.91757363080978393555e-01) (19, 2.11742138862609863281e+00) (20, -1.31189763545989990234e+00) (6, 1.58672988414764404297e+00) (7, 1.10071778297424316406e+00) (8, 2.23652914166450500488e-01) (9, 7.44726300239562988281e-01) (10, -1.05521798133850097656e+00) (11, -3.91192346811294555664e-01) (12, -9.54371273517608642578e-01) (13, 4.31343793869018554688e-01) (14, -2.20575317740440368652e-01) (15, 7.49036216735839843750e+00) (16, -1.05992460250854492188e+00) (17, -1.22712182998657226562e+01) (18, 5.66663205623626708984e-01) (19, 1.33574330806732177734e+00) (20, -9.16048228740692138672e-01) 
