FANN_FLO_2.1
num_layers=3
learning_rate=0.700000
connection_rate=1.000000
network_type=0
learning_momentum=0.000000
training_algorithm=2
train_error_function=1
train_stop_function=0
cascade_output_change_fraction=0.010000
quickprop_decay=-0.000100
quickprop_mu=1.750000
rprop_increase_factor=1.200000
rprop_decrease_factor=0.500000
rprop_delta_min=0.000000
rprop_delta_max=50.000000
rprop_delta_zero=0.100000
cascade_output_stagnation_epochs=12
cascade_candidate_change_fraction=0.010000
cascade_candidate_stagnation_epochs=12
cascade_max_out_epochs=150
cascade_min_out_epochs=50
cascade_max_cand_epochs=150
cascade_min_cand_epochs=50
cascade_num_candidate_groups=2
bit_fail_limit=3.49999994039535522461e-01
cascade_candidate_limit=1.00000000000000000000e+03
cascade_weight_multiplier=4.00000005960464477539e-01
cascade_activation_functions_count=10
cascade_activation_functions=3 5 7 8 10 11 14 15 16 17 
cascade_activation_steepnesses_count=4
cascade_activation_steepnesses=2.50000000000000000000e-01 5.00000000000000000000e-01 7.50000000000000000000e-01 1.00000000000000000000e+00 
layer_sizes=6 15 5 
scale_included=0
neurons (num_inputs, activation_function, activation_steepness)=(0, 0, 0.00000000000000000000e+00) (0, 0, 0.00000000000000000000e+00) (0, 0, 0.00000000000000000000e+00) (0, 0, 0.00000000000000000000e+00) (0, 0, 0.00000000000000000000e+00) (0, 0, 0.00000000000000000000e+00) (6, 5, 5.00000000000000000000e-01) (6, 5, 5.00000000000000000000e-01) (6, 5, 5.00000000000000000000e-01) (6, 5, 5.00000000000000000000e-01) (6, 5, 5.00000000000000000000e-01) (6, 5, 5.00000000000000000000e-01) (6, 5, 5.00000000000000000000e-01) (6, 5, 5.00000000000000000000e-01) (6, 5, 5.00000000000000000000e-01) (6, 5, 5.00000000000000000000e-01) (6, 5, 5.00000000000000000000e-01) (6, 5, 5.00000000000000000000e-01) (6, 5, 5.00000000000000000000e-01) (6, 5, 5.00000000000000000000e-01) (0, 5, 0.00000000000000000000e+00) (15, 5, 5.00000000000000000000e-01) (15, 5, 5.00000000000000000000e-01) (15, 5, 5.00000000000000000000e-01) (15, 5, 5.00000000000000000000e-01) (0, 5, 0.00000000000000000000e+00) 
connections (connected_to_neuron, weight)=(0, 3.16540470123291015625e+01) (1, -2.20532536506652832031e+00) (2, -7.83519726246595382690e-03) (3, 1.61792278289794921875e-01) (4, 1.50000000000000000000e+03) (5, 7.91790988296270370483e-03) (0, 5.60212860107421875000e+01) (1, 1.50000000000000000000e+03) (2, -1.46645910644531250000e+03) (3, 1.50000000000000000000e+03) (4, 1.50000000000000000000e+03) (5, -4.04638427734375000000e+02) (0, 1.36626362800598144531e+00) (1, -3.17617201805114746094e+00) (2, -2.36551780253648757935e-02) (3, -4.81429815292358398438e+00) (4, 1.50000000000000000000e+03) (5, 6.76545798778533935547e-02) (0, -7.70961608886718750000e+01) (1, 8.80805134773254394531e-01) (2, 1.24324701726436614990e-01) (3, 4.88829970359802246094e-01) (4, 1.50000000000000000000e+03) (5, -6.29096552729606628418e-02) (0, 1.49132067871093750000e+03) (1, -1.50000000000000000000e+03) (2, 6.29439532756805419922e-01) (3, -1.50000000000000000000e+03) (4, 1.50000000000000000000e+03) (5, 5.98111328125000000000e+02) (0, 6.50198120117187500000e+02) (1, 1.38222558593750000000e+03) (2, -1.42973901367187500000e+03) (3, 1.24351391601562500000e+03) (4, 1.50000000000000000000e+03) (5, -3.72329681396484375000e+02) (0, 2.74152191162109375000e+02) (1, -1.50000000000000000000e+03) (2, 1.50000000000000000000e+03) (3, -5.79715881347656250000e+02) (4, 1.50000000000000000000e+03) (5, 4.47318176269531250000e+02) (0, 5.37280761718750000000e+02) (1, -1.50000000000000000000e+03) (2, 9.57970214843750000000e+02) (3, -1.50000000000000000000e+03) (4, 1.50000000000000000000e+03) (5, 1.50000000000000000000e+03) (0, 1.50000000000000000000e+03) (1, -4.29779510498046875000e+02) (2, -1.12478017807006835938e+00) (3, -3.86126446723937988281e+00) (4, 1.50000000000000000000e+03) (5, 8.55817079544067382812e-01) (0, 1.49884936523437500000e+03) (1, 1.43309509277343750000e+02) (2, -1.50000000000000000000e+03) (3, 3.86254620552062988281e+00) (4, 1.50000000000000000000e+03) (5, -1.71844425201416015625e+01) (0, -1.14002693176269531250e+02) (1, -1.50000000000000000000e+03) (2, 1.50000000000000000000e+03) (3, -1.25275561523437500000e+03) (4, 1.50000000000000000000e+03) (5, 8.79716674804687500000e+02) (0, -1.42681481933593750000e+03) (1, -3.16183624267578125000e+01) (2, 1.50000000000000000000e+03) (3, -5.95000427246093750000e+02) (4, 1.50000000000000000000e+03) (5, 7.66516235351562500000e+02) (0, -2.43691692352294921875e+01) (1, 1.52921352386474609375e+01) (2, 1.89735367894172668457e-01) (3, 2.64651966094970703125e+00) (4, 1.50000000000000000000e+03) (5, 3.31275373697280883789e-01) (0, 1.47049926757812500000e+02) (1, 1.93922538757324218750e+01) (2, 2.25378364324569702148e-01) (3, 3.54549980163574218750e+01) (4, 1.50000000000000000000e+03) (5, 3.07018160820007324219e+00) (6, -1.27822518348693847656e+00) (7, 7.85175085067749023438e-01) (8, -2.16395435333251953125e+01) (9, 2.26982712745666503906e-01) (10, -1.97486668825149536133e-01) (11, 4.75920051336288452148e-01) (12, -3.28169018030166625977e-01) (13, -2.70915299654006958008e-01) (14, -2.31369495391845703125e+00) (15, 2.45215058326721191406e-01) (16, -3.13540846109390258789e-01) (17, -1.91717624664306640625e-01) (18, 2.24722504615783691406e-01) (19, 4.78283792734146118164e-01) (20, -3.30690175294876098633e-01) (6, -7.58656549453735351562e+00) (7, 9.21666502952575683594e-01) (8, 3.89415025711059570312e+00) (9, -8.41559991240501403809e-02) (10, -2.03498795628547668457e-01) (11, 5.77219128608703613281e-01) (12, -4.47099387645721435547e-01) (13, -3.21292698383331298828e-01) (14, 2.96270203590393066406e+00) (15, 1.23968124389648437500e+00) (16, -4.33022171258926391602e-01) (17, -4.20880794525146484375e-01) (18, 3.08252424001693725586e-01) (19, -7.13221542537212371826e-03) (20, -3.71437668800354003906e-01) (6, 1.60617275238037109375e+01) (7, 1.69380652904510498047e+00) (8, -2.34748315811157226562e+00) (9, 4.64006811380386352539e-01) (10, -8.30522954463958740234e-01) (11, 1.27707338333129882812e+00) (12, -9.35432553291320800781e-01) (13, -8.58067572116851806641e-01) (14, -1.44338175654411315918e-01) (15, 6.37579381465911865234e-01) (16, -8.63044559955596923828e-01) (17, -9.47799324989318847656e-01) (18, 1.19021739959716796875e+01) (19, 7.78211653232574462891e-01) (20, -8.32899510860443115234e-01) (6, 2.10243254899978637695e-01) (7, 1.99882984161376953125e+00) (8, -8.98355579376220703125e+00) (9, 1.24196920394897460938e+01) (10, -1.02259898185729980469e+00) (11, 1.74556612968444824219e+00) (12, -1.24094402790069580078e+00) (13, -1.26949501037597656250e+00) (14, -3.70299339294433593750e-01) (15, 4.24440592527389526367e-01) (16, -1.16582345962524414062e+00) (17, -1.21029329299926757812e+00) (18, -2.24335517883300781250e+01) (19, 3.71416509151458740234e-01) (20, -1.15382075309753417969e+00) 
