FANN_FLO_2.1
num_layers=3
learning_rate=0.700000
connection_rate=1.000000
network_type=0
learning_momentum=0.000000
training_algorithm=2
train_error_function=1
train_stop_function=0
cascade_output_change_fraction=0.010000
quickprop_decay=-0.000100
quickprop_mu=1.750000
rprop_increase_factor=1.200000
rprop_decrease_factor=0.500000
rprop_delta_min=0.000000
rprop_delta_max=50.000000
rprop_delta_zero=0.100000
cascade_output_stagnation_epochs=12
cascade_candidate_change_fraction=0.010000
cascade_candidate_stagnation_epochs=12
cascade_max_out_epochs=150
cascade_min_out_epochs=50
cascade_max_cand_epochs=150
cascade_min_cand_epochs=50
cascade_num_candidate_groups=2
bit_fail_limit=3.49999994039535522461e-01
cascade_candidate_limit=1.00000000000000000000e+03
cascade_weight_multiplier=4.00000005960464477539e-01
cascade_activation_functions_count=10
cascade_activation_functions=3 5 7 8 10 11 14 15 16 17 
cascade_activation_steepnesses_count=4
cascade_activation_steepnesses=2.50000000000000000000e-01 5.00000000000000000000e-01 7.50000000000000000000e-01 1.00000000000000000000e+00 
layer_sizes=6 17 4 
scale_included=0
neurons (num_inputs, activation_function, activation_steepness)=(0, 0, 0.00000000000000000000e+00) (0, 0, 0.00000000000000000000e+00) (0, 0, 0.00000000000000000000e+00) (0, 0, 0.00000000000000000000e+00) (0, 0, 0.00000000000000000000e+00) (0, 0, 0.00000000000000000000e+00) (6, 5, 5.00000000000000000000e-01) (6, 5, 5.00000000000000000000e-01) (6, 5, 5.00000000000000000000e-01) (6, 5, 5.00000000000000000000e-01) (6, 5, 5.00000000000000000000e-01) (6, 5, 5.00000000000000000000e-01) (6, 5, 5.00000000000000000000e-01) (6, 5, 5.00000000000000000000e-01) (6, 5, 5.00000000000000000000e-01) (6, 5, 5.00000000000000000000e-01) (6, 5, 5.00000000000000000000e-01) (6, 5, 5.00000000000000000000e-01) (6, 5, 5.00000000000000000000e-01) (6, 5, 5.00000000000000000000e-01) (6, 5, 5.00000000000000000000e-01) (6, 5, 5.00000000000000000000e-01) (0, 5, 0.00000000000000000000e+00) (17, 5, 5.00000000000000000000e-01) (17, 5, 5.00000000000000000000e-01) (17, 5, 5.00000000000000000000e-01) (0, 5, 0.00000000000000000000e+00) 
connections (connected_to_neuron, weight)=(0, 2.85302609205245971680e-01) (1, 1.57808363437652587891e-01) (2, -9.19986128807067871094e-01) (3, -6.35947763919830322266e-01) (4, 4.84859049320220947266e-01) (5, -2.31900274753570556641e-01) (0, 1.50000000000000000000e+03) (1, 3.76060600280761718750e+01) (2, 2.20518508911132812500e+02) (3, -1.48620251464843750000e+03) (4, -3.26727111816406250000e+02) (5, -1.46399169921875000000e+03) (0, -1.83520838618278503418e-01) (1, 1.86830568313598632812e+00) (2, 8.04516196250915527344e-01) (3, 6.39944747090339660645e-02) (4, 8.15679490566253662109e-01) (5, 4.87305253744125366211e-01) (0, 1.50000000000000000000e+03) (1, 1.08900787353515625000e+02) (2, 5.86644470214843750000e+02) (3, -1.46399169921875000000e+03) (4, 4.81104888916015625000e+02) (5, -1.46584118652343750000e+03) (0, 1.45142541503906250000e+03) (1, 6.30001664161682128906e-01) (2, -1.47589611816406250000e+03) (3, 1.01398158073425292969e+00) (4, 8.34830552339553833008e-02) (5, 8.45143496990203857422e-02) (0, -2.43787869811058044434e-01) (1, 1.59075066447257995605e-01) (2, -4.19393777847290039062e-01) (3, -2.81697362661361694336e-01) (4, 1.51918351650238037109e-01) (5, -1.95042893290519714355e-01) (0, -1.35446786880493164062e-01) (1, 2.82992571592330932617e-01) (2, -9.47088301181793212891e-02) (3, 2.00578216463327407837e-02) (4, 3.20188179612159729004e-02) (5, 1.06922119855880737305e-01) (0, 2.68241620063781738281e+00) (1, -1.22894918918609619141e+00) (2, -1.50930333137512207031e+00) (3, 1.77994787693023681641e+00) (4, -2.15019330382347106934e-01) (5, 9.78461027145385742188e-01) (0, 3.22542965412139892578e-01) (1, 6.77099406719207763672e-01) (2, 3.81114768981933593750e+00) (3, 2.91791617870330810547e-01) (4, -1.58735364675521850586e-01) (5, 4.49719995260238647461e-01) (0, 1.09712243652343750000e+03) (1, 4.19221496582031250000e+00) (2, -1.33749440312385559082e-01) (3, -1.49035681152343750000e+03) (4, -4.22984123229980468750e+01) (5, -1.48620251464843750000e+03) (0, 1.50000000000000000000e+03) (1, 3.99635200500488281250e+01) (2, 6.08188247680664062500e+00) (3, -1.49035681152343750000e+03) (4, 4.45508758544921875000e+02) (5, -1.46399169921875000000e+03) (0, 6.19005441665649414062e-01) (1, 8.38752016425132751465e-02) (2, 6.89987957477569580078e-01) (3, 1.07354271411895751953e+00) (4, 6.42179608345031738281e-01) (5, 1.12018656730651855469e+00) (0, 8.26622843742370605469e-01) (1, -4.35346871614456176758e-01) (2, -1.40689025878906250000e+03) (3, 9.83865127563476562500e+01) (4, 1.58850336074829101562e+00) (5, 7.07720994949340820312e-01) (0, -1.31454944610595703125e+00) (1, -9.26522612571716308594e-01) (2, -1.50685739517211914062e+01) (3, 1.03075563907623291016e+00) (4, 1.48866105079650878906e+00) (5, 8.67424011230468750000e-01) (0, 3.23764061927795410156e+00) (1, -8.29563736915588378906e-02) (2, -8.88998150825500488281e-01) (3, -2.47467324137687683105e-01) (4, 1.19333827495574951172e+00) (5, -3.76506686210632324219e-01) (0, -1.99968472123146057129e-01) (1, 1.86839848756790161133e-01) (2, 8.80476295948028564453e-01) (3, -4.03820872306823730469e-01) (4, 1.19134774431586265564e-02) (5, 6.04776199907064437866e-03) (6, 7.85831451416015625000e+00) (7, 7.23382091522216796875e+00) (8, -3.12062110900878906250e+01) (9, 7.14424991607666015625e+00) (10, -2.35060238838195800781e+00) (11, -7.24054765701293945312e+00) (12, -1.33709497451782226562e+01) (13, 1.35176622867584228516e+00) (14, -1.82080993652343750000e+01) (15, 7.19758415222167968750e+00) (16, 7.00388336181640625000e+00) (17, 4.11029767990112304688e+00) (18, 2.86256885528564453125e+00) (19, -4.20124387741088867188e+00) (20, 2.86630287170410156250e+01) (21, -1.21054315567016601562e+01) (22, -3.39343523979187011719e+00) (6, 2.94838976860046386719e+00) (7, 6.22336089611053466797e-01) (8, 2.28490024805068969727e-01) (9, 6.14000737667083740234e-01) (10, 3.15850935876369476318e-02) (11, -2.61957263946533203125e+00) (12, -5.03215694427490234375e+00) (13, -8.67523014545440673828e-01) (14, 6.35587215423583984375e+00) (15, 6.92626714706420898438e-01) (16, 5.98487436771392822266e-01) (17, -3.89633961021900177002e-02) (18, -1.80549368262290954590e-01) (19, -2.91256570816040039062e+00) (20, 2.36499071121215820312e+00) (21, 3.95400238037109375000e+00) (22, -1.40829160809516906738e-01) (6, -3.52724480628967285156e+00) (7, 3.41671198606491088867e-01) (8, 2.69247323274612426758e-01) (9, 3.73101562261581420898e-01) (10, 8.20156931877136230469e-02) (11, 7.93838262557983398438e+00) (12, 5.03230333328247070312e+00) (13, 7.66920030117034912109e-01) (14, -3.10170233249664306641e-01) (15, 3.08605879545211791992e-01) (16, 3.04779112339019775391e-01) (17, -2.28458333015441894531e+00) (18, 6.30775317549705505371e-02) (19, 2.62401771545410156250e+00) (20, -4.05772972106933593750e+00) (21, -1.64696887135505676270e-01) (22, 1.00173689424991607666e-01) 
