FANN_FLO_2.1
num_layers=3
learning_rate=0.700000
connection_rate=1.000000
network_type=0
learning_momentum=0.000000
training_algorithm=2
train_error_function=1
train_stop_function=0
cascade_output_change_fraction=0.010000
quickprop_decay=-0.000100
quickprop_mu=1.750000
rprop_increase_factor=1.200000
rprop_decrease_factor=0.500000
rprop_delta_min=0.000000
rprop_delta_max=50.000000
rprop_delta_zero=0.100000
cascade_output_stagnation_epochs=12
cascade_candidate_change_fraction=0.010000
cascade_candidate_stagnation_epochs=12
cascade_max_out_epochs=150
cascade_min_out_epochs=50
cascade_max_cand_epochs=150
cascade_min_cand_epochs=50
cascade_num_candidate_groups=2
bit_fail_limit=3.49999994039535522461e-01
cascade_candidate_limit=1.00000000000000000000e+03
cascade_weight_multiplier=4.00000005960464477539e-01
cascade_activation_functions_count=10
cascade_activation_functions=3 5 7 8 10 11 14 15 16 17 
cascade_activation_steepnesses_count=4
cascade_activation_steepnesses=2.50000000000000000000e-01 5.00000000000000000000e-01 7.50000000000000000000e-01 1.00000000000000000000e+00 
layer_sizes=7 19 4 
scale_included=0
neurons (num_inputs, activation_function, activation_steepness)=(0, 0, 0.00000000000000000000e+00) (0, 0, 0.00000000000000000000e+00) (0, 0, 0.00000000000000000000e+00) (0, 0, 0.00000000000000000000e+00) (0, 0, 0.00000000000000000000e+00) (0, 0, 0.00000000000000000000e+00) (0, 0, 0.00000000000000000000e+00) (7, 5, 5.00000000000000000000e-01) (7, 5, 5.00000000000000000000e-01) (7, 5, 5.00000000000000000000e-01) (7, 5, 5.00000000000000000000e-01) (7, 5, 5.00000000000000000000e-01) (7, 5, 5.00000000000000000000e-01) (7, 5, 5.00000000000000000000e-01) (7, 5, 5.00000000000000000000e-01) (7, 5, 5.00000000000000000000e-01) (7, 5, 5.00000000000000000000e-01) (7, 5, 5.00000000000000000000e-01) (7, 5, 5.00000000000000000000e-01) (7, 5, 5.00000000000000000000e-01) (7, 5, 5.00000000000000000000e-01) (7, 5, 5.00000000000000000000e-01) (7, 5, 5.00000000000000000000e-01) (7, 5, 5.00000000000000000000e-01) (7, 5, 5.00000000000000000000e-01) (0, 5, 0.00000000000000000000e+00) (19, 5, 5.00000000000000000000e-01) (19, 5, 5.00000000000000000000e-01) (19, 5, 5.00000000000000000000e-01) (0, 5, 0.00000000000000000000e+00) 
connections (connected_to_neuron, weight)=(0, 8.63326609134674072266e-01) (1, -5.57390689849853515625e-01) (2, 2.11464309692382812500e+00) (3, 1.54984697699546813965e-01) (4, -1.33415147662162780762e-01) (5, 1.78360402584075927734e+00) (6, 1.71763479709625244141e+00) (0, 3.96574981689453125000e+02) (1, -1.15197326660156250000e+03) (2, -1.40417614746093750000e+03) (3, -1.49333715820312500000e+03) (4, -7.77856567382812500000e+02) (5, -1.48846936035156250000e+03) (6, -1.48846936035156250000e+03) (0, 4.91340332031250000000e+02) (1, -1.20294384765625000000e+03) (2, -1.09944592285156250000e+03) (3, 3.23133200407028198242e-01) (4, 5.91005277633666992188e+00) (5, 3.50878067016601562500e+01) (6, 3.50696411132812500000e+01) (0, 5.63136718750000000000e+02) (1, -1.49931054687500000000e+03) (2, 1.33956408691406250000e+03) (3, 1.42255444335937500000e+03) (4, -1.12861181640625000000e+03) (5, -2.19906616210937500000e+00) (6, -2.07849788665771484375e+00) (0, -1.41688977050781250000e+03) (1, 1.46798791503906250000e+03) (2, 1.05256457519531250000e+03) (3, -1.45721667480468750000e+03) (4, -1.45609301757812500000e+03) (5, -1.49879113769531250000e+03) (6, -1.49879113769531250000e+03) (0, -1.38237145996093750000e+03) (1, -1.49266394042968750000e+03) (2, 1.44214062500000000000e+03) (3, 1.49928417968750000000e+03) (4, -9.67171081542968750000e+02) (5, -5.74576835632324218750e+01) (6, -5.75179557800292968750e+01) (0, 4.83574005126953125000e+02) (1, 8.82005882263183593750e+00) (2, -2.23265167236328125000e+02) (3, 4.84857711791992187500e+01) (4, 7.03490142822265625000e+01) (5, 3.30653619766235351562e+00) (6, 3.32871174812316894531e+00) (0, -4.36278076171875000000e+01) (1, 9.41175918579101562500e+01) (2, 1.49991101074218750000e+03) (3, -4.13510799407958984375e+00) (4, -2.11473035812377929688e+00) (5, 4.69540059566497802734e-01) (6, 5.28308272361755371094e-01) (0, 3.88082305908203125000e+02) (1, -8.85933105468750000000e+02) (2, -1.36677478027343750000e+03) (3, -1.49589257812500000000e+03) (4, -5.42295532226562500000e+02) (5, -1.48841650390625000000e+03) (6, -1.48841650390625000000e+03) (0, 2.34753402709960937500e+02) (1, 1.19269914627075195312e+01) (2, 2.10727264404296875000e+02) (3, -1.19131398200988769531e+00) (4, 6.91882014274597167969e-01) (5, 1.58389961719512939453e+00) (6, 1.56400394439697265625e+00) (0, 3.88112243652343750000e+02) (1, -7.70134155273437500000e+02) (2, -1.36677270507812500000e+03) (3, -1.49589465332031250000e+03) (4, -5.27039916992187500000e+02) (5, -1.48841918945312500000e+03) (6, -1.48841918945312500000e+03) (0, -1.47864624023437500000e+03) (1, -2.07449493408203125000e+02) (2, 1.45064587402343750000e+03) (3, -5.27259674072265625000e+01) (4, 1.38556311035156250000e+03) (5, -8.22623550891876220703e-01) (6, -9.72408652305603027344e-01) (0, 3.14940826416015625000e+02) (1, -1.49718750000000000000e+03) (2, 8.61069030761718750000e+02) (3, 1.49854699707031250000e+03) (4, -1.06233007812500000000e+03) (5, -1.06259622573852539062e+01) (6, -1.06302804946899414062e+01) (0, -7.43771362304687500000e+01) (1, -5.37747009277343750000e+02) (2, 1.15908251953125000000e+03) (3, -8.89510750770568847656e-01) (4, -1.36194482421875000000e+03) (5, 8.63581275939941406250e+00) (6, 8.56227970123291015625e+00) (0, -1.15922924804687500000e+03) (1, -1.49761547851562500000e+03) (2, 1.34418701171875000000e+03) (3, 1.48468200683593750000e+03) (4, -1.23148107910156250000e+03) (5, -1.63204269409179687500e+01) (6, -1.64737777709960937500e+01) (0, -1.43200268554687500000e+03) (1, 1.47150915527343750000e+03) (2, 1.04799804687500000000e+03) (3, -1.46974267578125000000e+03) (4, -1.48419628906250000000e+03) (5, -1.49841662597656250000e+03) (6, -1.49841662597656250000e+03) (0, -1.41649328613281250000e+03) (1, 1.49871386718750000000e+03) (2, 3.66101135253906250000e+02) (3, 1.40168041992187500000e+03) (4, -6.48777832031250000000e+02) (5, -1.35670013427734375000e+02) (6, -1.35609573364257812500e+02) (0, 3.17450356483459472656e+00) (1, -5.25580549240112304688e+00) (2, -2.20851325988769531250e+01) (3, 1.90172028541564941406e+00) (4, 5.50956986844539642334e-02) (5, 1.46653687953948974609e+00) (6, 1.46079194545745849609e+00) (7, 1.50000000000000000000e+03) (8, 1.50000000000000000000e+03) (9, 1.48222058105468750000e+03) (10, -3.17584686279296875000e+02) (11, 1.50000000000000000000e+03) (12, 1.48222058105468750000e+03) (13, 1.49364379882812500000e+03) (14, 1.48222058105468750000e+03) (15, 1.50000000000000000000e+03) (16, 5.73835266113281250000e+02) (17, 1.50000000000000000000e+03) (18, 1.40420996093750000000e+03) (19, 1.48222058105468750000e+03) (20, 9.65581848144531250000e+02) (21, 1.48222058105468750000e+03) (22, 1.50000000000000000000e+03) (23, 6.00814636230468750000e+02) (24, 1.50000000000000000000e+03) (25, 1.48222058105468750000e+03) (7, 1.02641401290893554688e+01) (8, 3.74658942222595214844e+00) (9, 9.40136432647705078125e-01) (10, 2.37864613533020019531e+00) (11, 9.40387916564941406250e+00) (12, -7.40596055984497070312e-01) (13, -2.18313074111938476562e+00) (14, 1.41859283447265625000e+01) (15, 9.95972347259521484375e+00) (16, 1.53921449184417724609e+00) (17, 9.93087673187255859375e+00) (18, 5.59003782272338867188e+00) (19, 1.54418790340423583984e+00) (20, 5.32384514808654785156e-01) (21, 6.11154735088348388672e-01) (22, 9.83792209625244140625e+00) (23, -2.48292350769042968750e+00) (24, -1.47709875106811523438e+01) (25, 7.10608780384063720703e-01) (7, -7.59604406356811523438e+00) (8, 4.36281728744506835938e+00) (9, -4.87228870391845703125e-01) (10, -4.73913621902465820312e+00) (11, -9.94426012039184570312e-01) (12, 3.90623378753662109375e+00) (13, 5.32304859161376953125e+00) (14, 6.58580112457275390625e+00) (15, 4.90817928314208984375e+00) (16, 1.30550801753997802734e+00) (17, 4.87253808975219726562e+00) (18, 4.97951698303222656250e+00) (19, -1.64615750312805175781e+00) (20, -1.27186203002929687500e+00) (21, -5.52999675273895263672e-01) (22, -6.03793561458587646484e-01) (23, 5.11076831817626953125e+00) (24, -4.22055482864379882812e+00) (25, 3.56882357597351074219e+00) 
