FANN_FLO_2.1
num_layers=3
learning_rate=0.700000
connection_rate=1.000000
network_type=0
learning_momentum=0.000000
training_algorithm=2
train_error_function=1
train_stop_function=0
cascade_output_change_fraction=0.010000
quickprop_decay=-0.000100
quickprop_mu=1.750000
rprop_increase_factor=1.200000
rprop_decrease_factor=0.500000
rprop_delta_min=0.000000
rprop_delta_max=50.000000
rprop_delta_zero=0.100000
cascade_output_stagnation_epochs=12
cascade_candidate_change_fraction=0.010000
cascade_candidate_stagnation_epochs=12
cascade_max_out_epochs=150
cascade_min_out_epochs=50
cascade_max_cand_epochs=150
cascade_min_cand_epochs=50
cascade_num_candidate_groups=2
bit_fail_limit=3.49999994039535522461e-01
cascade_candidate_limit=1.00000000000000000000e+03
cascade_weight_multiplier=4.00000005960464477539e-01
cascade_activation_functions_count=10
cascade_activation_functions=3 5 7 8 10 11 14 15 16 17 
cascade_activation_steepnesses_count=4
cascade_activation_steepnesses=2.50000000000000000000e-01 5.00000000000000000000e-01 7.50000000000000000000e-01 1.00000000000000000000e+00 
layer_sizes=10 23 3 
scale_included=0
neurons (num_inputs, activation_function, activation_steepness)=(0, 0, 0.00000000000000000000e+00) (0, 0, 0.00000000000000000000e+00) (0, 0, 0.00000000000000000000e+00) (0, 0, 0.00000000000000000000e+00) (0, 0, 0.00000000000000000000e+00) (0, 0, 0.00000000000000000000e+00) (0, 0, 0.00000000000000000000e+00) (0, 0, 0.00000000000000000000e+00) (0, 0, 0.00000000000000000000e+00) (0, 0, 0.00000000000000000000e+00) (10, 5, 5.00000000000000000000e-01) (10, 5, 5.00000000000000000000e-01) (10, 5, 5.00000000000000000000e-01) (10, 5, 5.00000000000000000000e-01) (10, 5, 5.00000000000000000000e-01) (10, 5, 5.00000000000000000000e-01) (10, 5, 5.00000000000000000000e-01) (10, 5, 5.00000000000000000000e-01) (10, 5, 5.00000000000000000000e-01) (10, 5, 5.00000000000000000000e-01) (10, 5, 5.00000000000000000000e-01) (10, 5, 5.00000000000000000000e-01) (10, 5, 5.00000000000000000000e-01) (10, 5, 5.00000000000000000000e-01) (10, 5, 5.00000000000000000000e-01) (10, 5, 5.00000000000000000000e-01) (10, 5, 5.00000000000000000000e-01) (10, 5, 5.00000000000000000000e-01) (10, 5, 5.00000000000000000000e-01) (10, 5, 5.00000000000000000000e-01) (10, 5, 5.00000000000000000000e-01) (10, 5, 5.00000000000000000000e-01) (0, 5, 0.00000000000000000000e+00) (23, 5, 5.00000000000000000000e-01) (23, 5, 5.00000000000000000000e-01) (0, 5, 0.00000000000000000000e+00) 
connections (connected_to_neuron, weight)=(0, 4.37665611505508422852e-01) (1, 4.16588336229324340820e-01) (2, -9.45813804864883422852e-02) (3, 4.70506101846694946289e-01) (4, 4.88806962966918945312e-01) (5, -2.93522149324417114258e-01) (6, -2.89061039686203002930e-01) (7, 3.98265540599822998047e-01) (8, -3.43619622290134429932e-02) (9, -3.32384444773197174072e-02) (0, 4.66123431921005249023e-01) (1, -1.01939976215362548828e-01) (2, 3.71176004409790039062e-01) (3, -1.13089427351951599121e-01) (4, 4.98045176267623901367e-01) (5, -7.78417065739631652832e-02) (6, -1.06603570282459259033e-01) (7, 4.49791043996810913086e-01) (8, 3.12450408935546875000e-01) (9, 3.92044931650161743164e-01) (0, 2.90425181388854980469e-01) (1, 4.59516137838363647461e-01) (2, 3.28801870346069335938e-01) (3, 2.95515179634094238281e-01) (4, -1.12835720181465148926e-01) (5, 4.40167635679244995117e-01) (6, 3.95372450351715087891e-01) (7, -2.46586859226226806641e-01) (8, -1.02361232042312622070e-01) (9, -6.45486488938331604004e-02) (0, 3.81820082664489746094e-01) (1, -6.94636553525924682617e-02) (2, -2.06648409366607666016e-01) (3, -8.94332975149154663086e-02) (4, 3.83602440357208251953e-01) (5, -3.44814360141754150391e-02) (6, -1.93707406520843505859e-01) (7, 2.83789426088333129883e-01) (8, 4.21256095170974731445e-01) (9, 4.13370668888092041016e-01) (0, -9.32570844888687133789e-02) (1, 4.31699514389038085938e-01) (2, 7.17830777168273925781e-01) (3, 3.54366958141326904297e-01) (4, -1.88237950205802917480e-01) (5, 4.30243849754333496094e-01) (6, 3.52973252534866333008e-01) (7, -2.18393534421920776367e-01) (8, -2.10109233856201171875e-01) (9, -2.24720448255538940430e-01) (0, 3.10131430625915527344e-01) (1, 1.04571968317031860352e-01) (2, 2.07563713192939758301e-01) (3, -2.87147611379623413086e-02) (4, 1.81047096848487854004e-01) (5, -8.03440362215042114258e-02) (6, 1.04604825377464294434e-01) (7, 2.69571542739868164062e-01) (8, 2.01037183403968811035e-01) (9, 2.42083638906478881836e-01) (0, 1.47637164592742919922e+00) (1, 5.36092519760131835938e-01) (2, -4.52615320682525634766e-01) (3, 4.72057789564132690430e-01) (4, 1.51821267604827880859e+00) (5, -6.96692883968353271484e-01) (6, -7.68574178218841552734e-01) (7, 5.05604565143585205078e-01) (8, -2.96583563089370727539e-01) (9, -4.30998116731643676758e-01) (0, -2.46720880270004272461e-01) (1, 4.49250698089599609375e-01) (2, -1.26799359917640686035e-01) (3, 4.68773871660232543945e-01) (4, -8.65264385938644409180e-02) (5, 3.44706743955612182617e-01) (6, 3.92169684171676635742e-01) (7, -2.40401238203048706055e-01) (8, -1.80534794926643371582e-01) (9, -1.24787561595439910889e-01) (0, -1.56213438510894775391e+00) (1, -2.88673639297485351562e-02) (2, 3.57000440359115600586e-01) (3, 6.04260638356208801270e-02) (4, -2.61998116970062255859e-01) (5, 3.15007507801055908203e-01) (6, 2.92722046375274658203e-01) (7, -2.79533043503761291504e-02) (8, 1.49443030357360839844e-01) (9, 2.58623242378234863281e-01) (0, -2.96256959438323974609e-01) (1, 1.89441904425621032715e-01) (2, 7.12840497493743896484e-01) (3, 2.67966270446777343750e-01) (4, 6.72083497047424316406e-02) (5, 3.00760358572006225586e-01) (6, 1.99068635702133178711e-01) (7, -7.35705420374870300293e-02) (8, 4.41673725843429565430e-01) (9, 3.04584383964538574219e-01) (0, 9.86029922962188720703e-01) (1, -1.00163996219635009766e-01) (2, -5.60360252857208251953e-01) (3, -1.83316737413406372070e-01) (4, 4.54849898815155029297e-01) (5, -2.03891441226005554199e-01) (6, -3.37266057729721069336e-01) (7, 5.40171563625335693359e-01) (8, -1.66916623711585998535e-01) (9, 4.03575241565704345703e-01) (0, -3.59611332416534423828e-01) (1, 2.14425817131996154785e-01) (2, 7.72691965103149414062e-01) (3, 1.42304375767707824707e-01) (4, -7.56121650338172912598e-02) (5, 1.87397778034210205078e-01) (6, 2.97343850135803222656e-01) (7, 5.71419000625610351562e-02) (8, 4.18036460876464843750e-01) (9, 3.01378875970840454102e-01) (0, 7.53096342086791992188e-01) (1, 3.96582812070846557617e-01) (2, -6.21774554252624511719e-01) (3, 3.35069566965103149414e-01) (4, 4.84389096498489379883e-01) (5, -2.74770915508270263672e-01) (6, -3.29226195812225341797e-01) (7, 5.78209698200225830078e-01) (8, -3.41654159128665924072e-02) (9, -6.07492998242378234863e-02) (0, 4.11389261484146118164e-01) (1, 2.70181268453598022461e-01) (2, 5.55986911058425903320e-02) (3, 2.82581031322479248047e-01) (4, 4.08547788858413696289e-01) (5, -3.71746718883514404297e-01) (6, -4.39409673213958740234e-01) (7, 4.60529774427413940430e-01) (8, -1.92579969763755798340e-01) (9, -1.83363005518913269043e-01) (0, -4.23165559768676757812e-01) (1, 2.30003997683525085449e-01) (2, 5.21091639995574951172e-01) (3, 1.24937608838081359863e-01) (4, 4.85643148422241210938e-02) (5, 2.89850652217864990234e-01) (6, 2.07087367773056030273e-01) (7, 4.06601577997207641602e-02) (8, 3.22544574737548828125e-01) (9, -4.49241995811462402344e-02) (0, -2.72713005542755126953e-01) (1, 3.99141669273376464844e-01) (2, -8.21014270186424255371e-02) (3, 4.44603800773620605469e-01) (4, -1.19644865393638610840e-01) (5, 3.89935672283172607422e-01) (6, 3.59080910682678222656e-01) (7, -2.59623050689697265625e-01) (8, -2.10798770189285278320e-01) (9, -2.70060569047927856445e-01) (0, 1.59430444240570068359e+00) (1, -2.52004742622375488281e-01) (2, -9.92858588695526123047e-01) (3, -1.84005632996559143066e-01) (4, 1.58218109607696533203e+00) (5, -7.70026028156280517578e-01) (6, -7.74504303932189941406e-01) (7, 9.49253141880035400391e-01) (8, -2.24261105060577392578e-01) (9, 1.60710975527763366699e-01) (0, 4.93294924497604370117e-01) (1, 3.42685431241989135742e-01) (2, -1.54533043503761291504e-01) (3, 3.00965696573257446289e-01) (4, 5.01671075820922851562e-01) (5, -1.08016736805438995361e-01) (6, -1.58431723713874816895e-01) (7, 4.03510391712188720703e-01) (8, -3.88125330209732055664e-02) (9, -8.81431549787521362305e-02) (0, -1.11461862921714782715e-01) (1, 4.32922542095184326172e-01) (2, 4.20982509851455688477e-01) (3, 4.66180771589279174805e-01) (4, -2.12617784738540649414e-01) (5, 4.28953677415847778320e-01) (6, 3.49268406629562377930e-01) (7, -1.60384908318519592285e-01) (8, 3.06482642889022827148e-01) (9, -1.68378397822380065918e-01) (0, 4.98245865106582641602e-01) (1, -2.99216955900192260742e-02) (2, -1.64059591293334960938e+00) (3, 3.42192500829696655273e-02) (4, 4.28363978862762451172e-01) (5, 2.83371657133102416992e-02) (6, -1.08011543750762939453e-01) (7, 2.11107671260833740234e-01) (8, 1.95491090416908264160e-01) (9, 2.52988189458847045898e-01) (0, 4.94570642709732055664e-01) (1, -7.95005261898040771484e-03) (2, -5.72921693325042724609e-01) (3, 1.09701566398143768311e-01) (4, 3.16951662302017211914e-01) (5, -1.58751413226127624512e-01) (6, -1.13675191998481750488e-01) (7, 4.34967935085296630859e-01) (8, -1.92905962467193603516e-03) (9, 2.51992315053939819336e-01) (0, 5.86760818958282470703e-01) (1, 1.04305110871791839600e-01) (2, -4.44608509540557861328e-01) (3, 9.13912281394004821777e-02) (4, 7.24309921264648437500e-01) (5, -3.78839015960693359375e-01) (6, -3.65319132804870605469e-01) (7, 4.38410282135009765625e-01) (8, -5.32079115509986877441e-02) (9, 1.46347478032112121582e-01) (10, -3.66627424955368041992e-01) (11, -1.62917301058769226074e-01) (12, 4.17641818523406982422e-01) (13, -1.47672733291983604431e-02) (14, 1.51090681552886962891e+00) (15, -1.13085523247718811035e-01) (16, -2.36382126808166503906e-01) (17, 3.73082518577575683594e-01) (18, 3.76070171594619750977e-01) (19, 2.97861009836196899414e-01) (20, -4.41820621490478515625e-01) (21, 2.24496737122535705566e-01) (22, -4.48796331882476806641e-01) (23, -2.16399788856506347656e-01) (24, 2.18838289380073547363e-01) (25, 3.23950588703155517578e-01) (26, -1.59536397457122802734e+00) (27, -3.52705746889114379883e-01) (28, 4.00902479887008666992e-01) (29, -9.22482311725616455078e-02) (30, 5.08193820714950561523e-02) (31, -1.30096808075904846191e-01) (32, 2.15800896286964416504e-01) (10, 4.50038164854049682617e-01) (11, -7.55375996232032775879e-02) (12, -2.02321320772171020508e-01) (13, 4.41055208444595336914e-01) (14, -4.54475998878479003906e-01) (15, -2.02951095998287200928e-02) (16, 4.32135313749313354492e-01) (17, 2.99346774816513061523e-01) (18, -3.32055330276489257812e-01) (19, -9.83339846134185791016e-02) (20, 8.39375793933868408203e-01) (21, -3.26465405523777008057e-02) (22, 8.50779294967651367188e-01) (23, 8.66550058126449584961e-02) (24, 7.41938129067420959473e-03) (25, 2.87778556346893310547e-01) (26, 1.62207388877868652344e+00) (27, 5.01843631267547607422e-01) (28, -4.24602121114730834961e-01) (29, 2.99669891595840454102e-01) (30, 4.21751379966735839844e-01) (31, 4.23721432685852050781e-01) (32, 3.36076170206069946289e-01) 
