FANN_FLO_2.1
num_layers=3
learning_rate=0.700000
connection_rate=1.000000
network_type=0
learning_momentum=0.000000
training_algorithm=2
train_error_function=1
train_stop_function=0
cascade_output_change_fraction=0.010000
quickprop_decay=-0.000100
quickprop_mu=1.750000
rprop_increase_factor=1.200000
rprop_decrease_factor=0.500000
rprop_delta_min=0.000000
rprop_delta_max=50.000000
rprop_delta_zero=0.100000
cascade_output_stagnation_epochs=12
cascade_candidate_change_fraction=0.010000
cascade_candidate_stagnation_epochs=12
cascade_max_out_epochs=150
cascade_min_out_epochs=50
cascade_max_cand_epochs=150
cascade_min_cand_epochs=50
cascade_num_candidate_groups=2
bit_fail_limit=3.49999994039535522461e-01
cascade_candidate_limit=1.00000000000000000000e+03
cascade_weight_multiplier=4.00000005960464477539e-01
cascade_activation_functions_count=10
cascade_activation_functions=3 5 7 8 10 11 14 15 16 17 
cascade_activation_steepnesses_count=4
cascade_activation_steepnesses=2.50000000000000000000e-01 5.00000000000000000000e-01 7.50000000000000000000e-01 1.00000000000000000000e+00 
layer_sizes=10 23 3 
scale_included=0
neurons (num_inputs, activation_function, activation_steepness)=(0, 0, 0.00000000000000000000e+00) (0, 0, 0.00000000000000000000e+00) (0, 0, 0.00000000000000000000e+00) (0, 0, 0.00000000000000000000e+00) (0, 0, 0.00000000000000000000e+00) (0, 0, 0.00000000000000000000e+00) (0, 0, 0.00000000000000000000e+00) (0, 0, 0.00000000000000000000e+00) (0, 0, 0.00000000000000000000e+00) (0, 0, 0.00000000000000000000e+00) (10, 5, 5.00000000000000000000e-01) (10, 5, 5.00000000000000000000e-01) (10, 5, 5.00000000000000000000e-01) (10, 5, 5.00000000000000000000e-01) (10, 5, 5.00000000000000000000e-01) (10, 5, 5.00000000000000000000e-01) (10, 5, 5.00000000000000000000e-01) (10, 5, 5.00000000000000000000e-01) (10, 5, 5.00000000000000000000e-01) (10, 5, 5.00000000000000000000e-01) (10, 5, 5.00000000000000000000e-01) (10, 5, 5.00000000000000000000e-01) (10, 5, 5.00000000000000000000e-01) (10, 5, 5.00000000000000000000e-01) (10, 5, 5.00000000000000000000e-01) (10, 5, 5.00000000000000000000e-01) (10, 5, 5.00000000000000000000e-01) (10, 5, 5.00000000000000000000e-01) (10, 5, 5.00000000000000000000e-01) (10, 5, 5.00000000000000000000e-01) (10, 5, 5.00000000000000000000e-01) (10, 5, 5.00000000000000000000e-01) (0, 5, 0.00000000000000000000e+00) (23, 5, 5.00000000000000000000e-01) (23, 5, 5.00000000000000000000e-01) (0, 5, 0.00000000000000000000e+00) 
connections (connected_to_neuron, weight)=(0, 1.50000000000000000000e+03) (1, -2.85916090011596679688e+00) (2, -2.12224197387695312500e+02) (3, -1.96531600952148437500e+01) (4, 1.44540002441406250000e+03) (5, 1.08273468017578125000e+02) (6, 1.30961083984375000000e+03) (7, 1.47600000000000000000e+03) (8, 8.51736511230468750000e+02) (9, 7.10772812366485595703e-01) (0, 9.70353881835937500000e+02) (1, 1.07686425781250000000e+03) (2, -9.28723144531250000000e+02) (3, 1.42008081054687500000e+03) (4, 4.85445312500000000000e+02) (5, -1.19486450195312500000e+03) (6, -1.37883862304687500000e+03) (7, -1.28936889648437500000e+03) (8, -1.49323132324218750000e+03) (9, -9.08968811035156250000e+02) (0, -1.44500000000000000000e+03) (1, 9.52851638793945312500e+01) (2, 9.87126312255859375000e+01) (3, 1.28509262084960937500e+02) (4, -1.40900000000000000000e+03) (5, 3.04956420898437500000e+02) (6, -8.95812316894531250000e+02) (7, -1.40900000000000000000e+03) (8, -1.29085375976562500000e+03) (9, 9.12875413894653320312e-01) (0, -2.98668151855468750000e+02) (1, 2.74150991439819335938e+00) (2, 1.27307395935058593750e+02) (3, 3.49875545501708984375e+00) (4, -1.23965759277343750000e+03) (5, -8.68114440917968750000e+02) (6, -8.29514221191406250000e+02) (7, -9.07434570312500000000e+02) (8, -1.04784436035156250000e+03) (9, -1.20661830902099609375e+00) (0, 1.47000000000000000000e+03) (1, -1.43551000976562500000e+03) (2, -1.50000000000000000000e+03) (3, -1.43444299316406250000e+03) (4, 1.47000000000000000000e+03) (5, 6.38330139160156250000e+02) (6, 1.50000000000000000000e+03) (7, 1.50000000000000000000e+03) (8, 1.48683239746093750000e+03) (9, 1.34214636230468750000e+03) (0, -1.50000000000000000000e+03) (1, 1.49803479003906250000e+03) (2, 1.50000000000000000000e+03) (3, 1.49918115234375000000e+03) (4, -1.44500000000000000000e+03) (5, -1.02707202148437500000e+03) (6, -1.38272766113281250000e+03) (7, -1.40300000000000000000e+03) (8, -1.45329736328125000000e+03) (9, -6.60424118041992187500e+01) (0, -5.31687377929687500000e+02) (1, -7.91087280273437500000e+02) (2, 1.50000000000000000000e+03) (3, -1.06651159667968750000e+03) (4, 1.61803466796875000000e+02) (5, 1.34553320312500000000e+03) (6, -8.44524917602539062500e+01) (7, -1.19842395019531250000e+03) (8, 4.97616546630859375000e+02) (9, 1.19207221984863281250e+02) (0, 1.43400000000000000000e+03) (1, -2.32105846405029296875e+01) (2, -6.15886413574218750000e+02) (3, -9.30694122314453125000e+01) (4, 1.43400000000000000000e+03) (5, 1.44227795410156250000e+03) (6, 1.48223034667968750000e+03) (7, 1.46610559082031250000e+03) (8, 1.40452734375000000000e+03) (9, 3.09258967638015747070e-01) (0, 1.49147412109375000000e+03) (1, -8.61198730468750000000e+02) (2, 5.89321716308593750000e+02) (3, -8.17697448730468750000e+02) (4, 1.13927758789062500000e+03) (5, 8.06544616699218750000e+02) (6, 1.01186981201171875000e+03) (7, 1.08922216796875000000e+03) (8, 8.06641662597656250000e+02) (9, 2.13523340225219726562e+00) (0, 2.41457092285156250000e+02) (1, -8.02098751068115234375e+00) (2, 9.25609207153320312500e+01) (3, -1.61898403167724609375e+01) (4, 9.13560791015625000000e+01) (5, -3.39792053222656250000e+02) (6, -3.77674591064453125000e+02) (7, -1.41516003417968750000e+03) (8, -1.16829821777343750000e+03) (9, 5.43166732788085937500e+00) (0, -7.31433715820312500000e+02) (1, -9.74652481079101562500e+00) (2, 6.30023231506347656250e+01) (3, -1.47687850952148437500e+02) (4, -6.23448608398437500000e+02) (5, 1.13158508300781250000e+03) (6, 3.75792999267578125000e+01) (7, -1.20397778320312500000e+03) (8, -2.95256866455078125000e+02) (9, 5.18520116806030273438e-01) (0, 1.44297595214843750000e+03) (1, -1.16659263610839843750e+02) (2, -4.18548355102539062500e+01) (3, -1.16935234069824218750e+02) (4, 1.50000000000000000000e+03) (5, 1.41302465820312500000e+03) (6, 1.48041870117187500000e+03) (7, 1.31762780761718750000e+03) (8, 1.38360839843750000000e+03) (9, 8.30739059448242187500e+01) (0, -1.44500000000000000000e+03) (1, 1.49922253417968750000e+03) (2, 1.50000000000000000000e+03) (3, 1.49803479003906250000e+03) (4, -1.44500000000000000000e+03) (5, -6.72691894531250000000e+02) (6, -1.48864953613281250000e+03) (7, -1.50000000000000000000e+03) (8, -1.40499682617187500000e+03) (9, -2.06193370819091796875e+01) (0, 1.27649755859375000000e+03) (1, 8.85577011108398437500e+00) (2, -1.04434743523597717285e-01) (3, 1.91715011596679687500e+01) (4, 5.19280090332031250000e+02) (5, -5.11766929626464843750e+01) (6, 7.96502609252929687500e+01) (7, 1.41656389236450195312e+01) (8, -3.70536193847656250000e+01) (9, 7.15208947658538818359e-01) (0, -1.42783996582031250000e+03) (1, 1.36485111713409423828e+00) (2, 2.52291750907897949219e+00) (3, 2.03711080551147460938e+00) (4, -1.43173718261718750000e+03) (5, 2.03871154785156250000e+02) (6, 2.81420288085937500000e+02) (7, -1.30573089599609375000e+02) (8, -9.91038513183593750000e+01) (9, 2.38563060760498046875e+00) (0, -1.37437341308593750000e+03) (1, 2.94025421142578125000e+00) (2, 1.27397973632812500000e+03) (3, 4.14201402664184570312e+00) (4, -1.42622644042968750000e+03) (5, -8.42100708007812500000e+02) (6, -8.58927490234375000000e+02) (7, -9.71698364257812500000e+02) (8, -9.78424438476562500000e+02) (9, 7.08942174911499023438e-01) (0, -1.29432458496093750000e+03) (1, 1.87573379516601562500e+02) (2, 5.34088230133056640625e+00) (3, 4.39746742248535156250e+01) (4, -1.03345007324218750000e+03) (5, 1.43400000000000000000e+03) (6, 1.48223852539062500000e+03) (7, 6.53813903808593750000e+02) (8, 1.26654577636718750000e+03) (9, 4.17405033111572265625e+00) (0, 1.47000000000000000000e+03) (1, 1.15501464843750000000e+03) (2, -1.50000000000000000000e+03) (3, 1.18061865234375000000e+03) (4, 1.47000000000000000000e+03) (5, 2.17823486328125000000e+02) (6, 1.38963488769531250000e+03) (7, 1.47000000000000000000e+03) (8, 1.44450805664062500000e+03) (9, -8.84425342082977294922e-02) (0, -4.99959228515625000000e+02) (1, 1.41876147460937500000e+03) (2, -1.13768920898437500000e+03) (3, 1.41876147460937500000e+03) (4, -6.96497802734375000000e+02) (5, -1.16698474121093750000e+03) (6, -1.17499475097656250000e+03) (7, 9.42781982421875000000e+01) (8, -3.27107666015625000000e+02) (9, -5.62739715576171875000e+01) (0, -1.73618164062500000000e+02) (1, 6.60791992187500000000e+02) (2, 1.06621734619140625000e+02) (3, 3.19570922851562500000e+02) (4, -1.72668319702148437500e+02) (5, -9.73497558593750000000e+02) (6, -9.76768920898437500000e+02) (7, -9.61794982910156250000e+02) (8, -1.01419940185546875000e+03) (9, 2.14131832122802734375e+00) (0, -1.44500000000000000000e+03) (1, 1.48357971191406250000e+03) (2, 1.50000000000000000000e+03) (3, 1.44588549804687500000e+03) (4, -1.40900000000000000000e+03) (5, -4.06800048828125000000e+02) (6, -1.28413989257812500000e+03) (7, -1.40900000000000000000e+03) (8, -1.36786596679687500000e+03) (9, -1.17745788574218750000e+03) (0, -1.40900000000000000000e+03) (1, 5.68913993835449218750e+01) (2, 1.19453454589843750000e+03) (3, 9.04873886108398437500e+01) (4, -1.40900000000000000000e+03) (5, -1.31796801757812500000e+03) (6, -1.33106481933593750000e+03) (7, -1.34188732910156250000e+03) (8, -1.27280200195312500000e+03) (9, 1.22660122811794281006e-01) (10, -6.33961772918701171875e+00) (11, 5.30335567891597747803e-02) (12, 6.75140202045440673828e-01) (13, 4.74571752548217773438e+00) (14, -1.01471710205078125000e+00) (15, 1.16759455204010009766e+00) (16, 8.49786567687988281250e+00) (17, 7.02768862247467041016e-01) (18, 1.39172840118408203125e+00) (19, 1.37347924709320068359e+00) (20, 9.33337020874023437500e+00) (21, 5.60003399848937988281e-01) (22, 1.70782577991485595703e+00) (23, 2.28272247314453125000e+00) (24, 2.01268649101257324219e+00) (25, 3.82795143127441406250e+00) (26, 1.52580022811889648438e-01) (27, -2.51475167274475097656e+00) (28, -3.46081900596618652344e+00) (29, 1.19841718673706054688e+00) (30, 2.75106191635131835938e-01) (31, -8.73671770095825195312e-01) (32, -2.18675613403320312500e+00) (10, 1.16520893573760986328e+00) (11, 1.51680231094360351562e-01) (12, -4.62343358993530273438e+00) (13, 3.06933212280273437500e+00) (14, 4.65364366769790649414e-01) (15, -1.60490855574607849121e-01) (16, -4.80913305282592773438e+00) (17, 2.33192777633666992188e+00) (18, 1.71764999628067016602e-01) (19, 1.56986653804779052734e-01) (20, -3.48953962326049804688e+00) (21, 2.86579370498657226562e-01) (22, -5.92128396034240722656e-01) (23, 3.39457559585571289062e+00) (24, 5.57994306087493896484e-01) (25, 1.37495338916778564453e+00) (26, -1.37673282623291015625e+00) (27, 6.16902971267700195312e+00) (28, 3.87716740369796752930e-01) (29, 1.42627918720245361328e+00) (30, -1.69433569908142089844e+00) (31, -1.52383124828338623047e+00) (32, 4.29766511917114257812e+00) 
