FANN_FLO_2.1
num_layers=3
learning_rate=0.700000
connection_rate=1.000000
network_type=0
learning_momentum=0.000000
training_algorithm=2
train_error_function=1
train_stop_function=0
cascade_output_change_fraction=0.010000
quickprop_decay=-0.000100
quickprop_mu=1.750000
rprop_increase_factor=1.200000
rprop_decrease_factor=0.500000
rprop_delta_min=0.000000
rprop_delta_max=50.000000
rprop_delta_zero=0.100000
cascade_output_stagnation_epochs=12
cascade_candidate_change_fraction=0.010000
cascade_candidate_stagnation_epochs=12
cascade_max_out_epochs=150
cascade_min_out_epochs=50
cascade_max_cand_epochs=150
cascade_min_cand_epochs=50
cascade_num_candidate_groups=2
bit_fail_limit=3.49999994039535522461e-01
cascade_candidate_limit=1.00000000000000000000e+03
cascade_weight_multiplier=4.00000005960464477539e-01
cascade_activation_functions_count=10
cascade_activation_functions=3 5 7 8 10 11 14 15 16 17 
cascade_activation_steepnesses_count=4
cascade_activation_steepnesses=2.50000000000000000000e-01 5.00000000000000000000e-01 7.50000000000000000000e-01 1.00000000000000000000e+00 
layer_sizes=5 15 4 
scale_included=0
neurons (num_inputs, activation_function, activation_steepness)=(0, 0, 0.00000000000000000000e+00) (0, 0, 0.00000000000000000000e+00) (0, 0, 0.00000000000000000000e+00) (0, 0, 0.00000000000000000000e+00) (0, 0, 0.00000000000000000000e+00) (5, 5, 5.00000000000000000000e-01) (5, 5, 5.00000000000000000000e-01) (5, 5, 5.00000000000000000000e-01) (5, 5, 5.00000000000000000000e-01) (5, 5, 5.00000000000000000000e-01) (5, 5, 5.00000000000000000000e-01) (5, 5, 5.00000000000000000000e-01) (5, 5, 5.00000000000000000000e-01) (5, 5, 5.00000000000000000000e-01) (5, 5, 5.00000000000000000000e-01) (5, 5, 5.00000000000000000000e-01) (5, 5, 5.00000000000000000000e-01) (5, 5, 5.00000000000000000000e-01) (5, 5, 5.00000000000000000000e-01) (0, 5, 0.00000000000000000000e+00) (15, 5, 5.00000000000000000000e-01) (15, 5, 5.00000000000000000000e-01) (15, 5, 5.00000000000000000000e-01) (0, 5, 0.00000000000000000000e+00) 
connections (connected_to_neuron, weight)=(0, 8.86184334754943847656e-01) (1, -1.73604071140289306641e-01) (2, 7.30629384517669677734e-01) (3, 3.11279803514480590820e-01) (4, -6.44768178462982177734e-01) (0, 1.01655066013336181641e+00) (1, -7.05860912799835205078e-01) (2, 1.76505029201507568359e-01) (3, 4.83164876699447631836e-01) (4, -8.93054199218750000000e+01) (0, 1.49862023925781250000e+03) (1, 1.49838037109375000000e+03) (2, -1.48722460937500000000e+03) (3, -1.43438549804687500000e+03) (4, -6.07200908660888671875e+00) (0, -2.78994202613830566406e+00) (1, 1.31092584133148193359e+00) (2, -1.53303429484367370605e-01) (3, 1.11307287216186523438e+00) (4, -2.54653350830078125000e+02) (0, 6.18391931056976318359e-01) (1, -4.55559313297271728516e-01) (2, 4.32099789381027221680e-01) (3, 6.45542204380035400391e-01) (4, -8.13910903930664062500e+01) (0, -1.62483918666839599609e+00) (1, 2.29764431715011596680e-01) (2, 6.66595160961151123047e-01) (3, 9.02625083923339843750e-01) (4, -2.49571418762207031250e+01) (0, 1.44611938476562500000e+03) (1, 1.49976867675781250000e+03) (2, -1.49299450683593750000e+03) (3, -1.39984619140625000000e+03) (4, -6.68971862792968750000e+02) (0, -2.27860426902770996094e+00) (1, 1.86750936508178710938e+00) (2, 1.68676376342773437500e+00) (3, 4.00654733180999755859e-01) (4, -2.51831263303756713867e-01) (0, 2.31610447168350219727e-01) (1, 7.45847880840301513672e-01) (2, -5.13519123196601867676e-02) (3, 5.68994343280792236328e-01) (4, 1.45437202453613281250e+01) (0, 1.37970434570312500000e+03) (1, 1.41522497558593750000e+03) (2, -1.47143969726562500000e+03) (3, -1.48803576660156250000e+03) (4, -1.49842138671875000000e+03) (0, 4.29300934076309204102e-01) (1, -7.87819385528564453125e-01) (2, -1.52308791875839233398e-02) (3, 1.51573345065116882324e-01) (4, -5.96376342773437500000e+01) (0, 6.07029974460601806641e-01) (1, -7.01579570770263671875e-01) (2, 9.04346704483032226562e-02) (3, 2.35205650329589843750e-01) (4, -8.93648681640625000000e+01) (0, 2.73150861263275146484e-01) (1, -2.98382312059402465820e-01) (2, -1.31921589374542236328e-01) (3, -7.20782130956649780273e-02) (4, -2.67511224746704101562e+00) (0, 1.85414958000183105469e+00) (1, -9.75928306579589843750e-01) (2, 3.33229422569274902344e-01) (3, 9.85267996788024902344e-01) (4, -4.64529457092285156250e+01) (5, -4.43918317556381225586e-01) (6, -1.05543351173400878906e+00) (7, -3.88686805963516235352e-01) (8, 1.41577827930450439453e+00) (9, -4.63235425949096679688e+00) (10, 4.58373308181762695312e-01) (11, 8.97126674652099609375e-01) (12, 3.62931060791015625000e+00) (13, 8.53689479827880859375e+00) (14, 4.75965142250061035156e-01) (15, -3.94135808944702148438e+00) (16, -9.35940921306610107422e-01) (17, -3.53985488414764404297e-01) (18, 3.70667266845703125000e+00) (19, 1.99454426765441894531e+00) (5, 1.00000000000000000000e+02) (6, 1.45000000000000000000e+03) (7, 1.50000000000000000000e+03) (8, 1.50000000000000000000e+03) (9, 1.50000000000000000000e+03) (10, 1.50000000000000000000e+03) (11, 1.50000000000000000000e+03) (12, -1.71876129150390625000e+02) (13, 1.16702056884765625000e+02) (14, 1.50000000000000000000e+03) (15, 1.50000000000000000000e+03) (16, 1.50000000000000000000e+03) (17, 1.50000000000000000000e+03) (18, 1.50000000000000000000e+03) (19, 1.50000000000000000000e+03) (5, 5.22937655448913574219e-01) (6, 3.63888478279113769531e+00) (7, 1.67884254455566406250e+00) (8, 4.04819488525390625000e+00) (9, 4.36197519302368164062e+00) (10, 5.86943912506103515625e+00) (11, 4.50546503067016601562e+00) (12, 9.85550498962402343750e+00) (13, -6.25084400177001953125e+00) (14, 3.77648782730102539062e+00) (15, 3.76477408409118652344e+00) (16, 3.07774114608764648438e+00) (17, -1.02507233619689941406e+00) (18, -3.50446128845214843750e+00) (19, -1.09817285537719726562e+01) 
