FANN_FLO_2.1
num_layers=3
learning_rate=0.700000
connection_rate=1.000000
network_type=0
learning_momentum=0.000000
training_algorithm=2
train_error_function=1
train_stop_function=0
cascade_output_change_fraction=0.010000
quickprop_decay=-0.000100
quickprop_mu=1.750000
rprop_increase_factor=1.200000
rprop_decrease_factor=0.500000
rprop_delta_min=0.000000
rprop_delta_max=50.000000
rprop_delta_zero=0.100000
cascade_output_stagnation_epochs=12
cascade_candidate_change_fraction=0.010000
cascade_candidate_stagnation_epochs=12
cascade_max_out_epochs=150
cascade_min_out_epochs=50
cascade_max_cand_epochs=150
cascade_min_cand_epochs=50
cascade_num_candidate_groups=2
bit_fail_limit=3.49999994039535522461e-01
cascade_candidate_limit=1.00000000000000000000e+03
cascade_weight_multiplier=4.00000005960464477539e-01
cascade_activation_functions_count=10
cascade_activation_functions=3 5 7 8 10 11 14 15 16 17 
cascade_activation_steepnesses_count=4
cascade_activation_steepnesses=2.50000000000000000000e-01 5.00000000000000000000e-01 7.50000000000000000000e-01 1.00000000000000000000e+00 
layer_sizes=7 21 5 
scale_included=0
neurons (num_inputs, activation_function, activation_steepness)=(0, 0, 0.00000000000000000000e+00) (0, 0, 0.00000000000000000000e+00) (0, 0, 0.00000000000000000000e+00) (0, 0, 0.00000000000000000000e+00) (0, 0, 0.00000000000000000000e+00) (0, 0, 0.00000000000000000000e+00) (0, 0, 0.00000000000000000000e+00) (7, 5, 5.00000000000000000000e-01) (7, 5, 5.00000000000000000000e-01) (7, 5, 5.00000000000000000000e-01) (7, 5, 5.00000000000000000000e-01) (7, 5, 5.00000000000000000000e-01) (7, 5, 5.00000000000000000000e-01) (7, 5, 5.00000000000000000000e-01) (7, 5, 5.00000000000000000000e-01) (7, 5, 5.00000000000000000000e-01) (7, 5, 5.00000000000000000000e-01) (7, 5, 5.00000000000000000000e-01) (7, 5, 5.00000000000000000000e-01) (7, 5, 5.00000000000000000000e-01) (7, 5, 5.00000000000000000000e-01) (7, 5, 5.00000000000000000000e-01) (7, 5, 5.00000000000000000000e-01) (7, 5, 5.00000000000000000000e-01) (7, 5, 5.00000000000000000000e-01) (7, 5, 5.00000000000000000000e-01) (7, 5, 5.00000000000000000000e-01) (0, 5, 0.00000000000000000000e+00) (21, 5, 5.00000000000000000000e-01) (21, 5, 5.00000000000000000000e-01) (21, 5, 5.00000000000000000000e-01) (21, 5, 5.00000000000000000000e-01) (0, 5, 0.00000000000000000000e+00) 
connections (connected_to_neuron, weight)=(0, -1.05525988769531250000e+03) (1, -1.40247973632812500000e+03) (2, 1.92848777770996093750e+01) (3, 3.52141227722167968750e+01) (4, 1.73828491210937500000e+02) (5, 2.27926712036132812500e+01) (6, 2.26920204162597656250e+01) (0, 3.84321659803390502930e-01) (1, 7.76225924491882324219e-02) (2, -2.35333479940891265869e-02) (3, 8.83952379226684570312e-01) (4, 2.97857541590929031372e-02) (5, 4.97782468795776367188e-01) (6, 5.41621506214141845703e-01) (0, -2.40461498498916625977e-01) (1, 1.50000000000000000000e+03) (2, 6.97429254651069641113e-02) (3, -5.48461425781250000000e+02) (4, -6.61511719226837158203e-01) (5, -2.43431808471679687500e+02) (6, -2.43310211181640625000e+02) (0, -1.14389806985855102539e-01) (1, -1.38564750552177429199e-01) (2, 8.18500995635986328125e-01) (3, 2.25652009248733520508e-01) (4, -6.80754184722900390625e-01) (5, 2.92412847280502319336e-01) (6, 2.52719372510910034180e-01) (0, -1.92976117134094238281e-01) (1, 6.33410274982452392578e-01) (2, 1.67466378211975097656e+00) (3, 9.02247428894042968750e-02) (4, -1.27527129370719194412e-03) (5, -5.92956580221652984619e-02) (6, -8.72198492288589477539e-02) (0, -1.49071240234375000000e+03) (1, 1.23064289093017578125e+01) (2, -1.52236056327819824219e+00) (3, 6.49336636066436767578e-01) (4, 2.26923799514770507812e+00) (5, 4.81206268072128295898e-01) (6, 4.72855478525161743164e-01) (0, 1.39534044265747070312e+01) (1, -1.49134893417358398438e+01) (2, -6.90289611816406250000e+01) (3, 1.41065139770507812500e+02) (4, 3.75194854736328125000e+01) (5, 1.08230915069580078125e+01) (6, 1.08082094192504882812e+01) (0, 6.05398833751678466797e-01) (1, 3.01013207435607910156e+00) (2, -3.05317252874374389648e-01) (3, 4.21599149703979492188e-01) (4, 4.33150023221969604492e-01) (5, -1.20650306344032287598e-01) (6, -1.18433572351932525635e-01) (0, 3.16153669357299804688e+00) (1, -1.43488342285156250000e+03) (2, -1.54458328247070312500e+02) (3, 6.51266296386718750000e+02) (4, 3.56697535514831542969e+00) (5, 5.87460632324218750000e+01) (6, 5.88714981079101562500e+01) (0, 2.24947524070739746094e+00) (1, -1.40247973632812500000e+03) (2, -3.65533874511718750000e+02) (3, 1.07800183105468750000e+03) (4, 1.04651212692260742188e+01) (5, 3.42191680908203125000e+02) (6, 3.42167938232421875000e+02) (0, 1.49689331054687500000e+03) (1, 1.50000000000000000000e+03) (2, -1.27577673339843750000e+03) (3, -4.34249916076660156250e+01) (4, -9.43500305175781250000e+02) (5, -2.37412052154541015625e+01) (6, -2.37228298187255859375e+01) (0, -1.46205981445312500000e+03) (1, -1.49706042480468750000e+03) (2, 1.43399523925781250000e+03) (3, 9.73562088012695312500e+01) (4, 5.53759887695312500000e+02) (5, 4.60057678222656250000e+01) (6, 4.60914421081542968750e+01) (0, -1.32792016601562500000e+03) (1, -1.49203283691406250000e+03) (2, 1.34510644531250000000e+03) (3, 4.49629831314086914062e+00) (4, 7.85090255737304687500e+01) (5, 4.71191930770874023438e+00) (6, 4.74643945693969726562e+00) (0, -1.40172241210937500000e+03) (1, -1.40247790527343750000e+03) (2, 1.22317248535156250000e+03) (3, 6.33037090301513671875e+00) (4, 1.37021740722656250000e+03) (5, 1.46393184661865234375e+01) (6, 1.45684242248535156250e+01) (0, 3.85937422513961791992e-01) (1, -1.95611655712127685547e-01) (2, -6.66342303156852722168e-02) (3, 5.66405951976776123047e-02) (4, 5.36417104303836822510e-02) (5, -9.54853296279907226562e-02) (6, 2.95841204933822154999e-03) (0, 1.31887257099151611328e+00) (1, -3.16142946481704711914e-01) (2, 3.26493382453918457031e-01) (3, 1.20111018419265747070e-01) (4, 1.91679641604423522949e-01) (5, -5.86316324770450592041e-02) (6, 1.08161643147468566895e-01) (0, 1.49935217285156250000e+03) (1, 1.50000000000000000000e+03) (2, -5.22762573242187500000e+02) (3, -4.35005035400390625000e+01) (4, -6.79983581542968750000e+02) (5, -1.34893627166748046875e+01) (6, -1.36095542907714843750e+01) (0, 7.89342463016510009766e-01) (1, 2.84637629985809326172e-01) (2, -8.10655176639556884766e-01) (3, 1.07524603605270385742e-01) (4, 3.52345824241638183594e-01) (5, 2.76940524578094482422e-01) (6, 3.30512672662734985352e-01) (0, 2.37804338335990905762e-01) (1, 4.70943510532379150391e-01) (2, 5.72773180902004241943e-02) (3, 1.09080545604228973389e-01) (4, 4.77290391921997070312e-01) (5, 1.76473096013069152832e-01) (6, 2.94113010168075561523e-01) (0, 1.42805651855468750000e+03) (1, 9.95395996093750000000e+02) (2, -1.43017626953125000000e+03) (3, -3.35282295942306518555e-01) (4, -1.17759680175781250000e+03) (5, 6.82568103075027465820e-02) (6, 1.31971597671508789062e-01) (7, 1.69573366641998291016e+00) (8, 3.90296897888183593750e+01) (9, 2.97651443481445312500e+01) (10, 1.00628671646118164062e+01) (11, -6.08284492492675781250e+01) (12, 9.62781143188476562500e+00) (13, 2.52074146270751953125e+01) (14, -3.95843219757080078125e+00) (15, 1.96443426609039306641e+00) (16, 1.90032255649566650391e+00) (17, 3.04164276123046875000e+01) (18, 1.68769419193267822266e+00) (19, 1.79676020145416259766e+00) (20, 1.70464336872100830078e+00) (21, 5.10570335388183593750e+00) (22, 1.92755448818206787109e+00) (23, 3.03124370574951171875e+01) (24, 9.92864847183227539062e-01) (25, 6.34207606315612792969e-01) (26, 3.08533382415771484375e+01) (27, 1.82045805454254150391e+00) (7, -7.11077988147735595703e-01) (8, -3.85161906480789184570e-01) (9, 9.90992963314056396484e-01) (10, 4.42655611038208007812e+00) (11, 8.89739608764648437500e+00) (12, -2.29256868362426757812e-01) (13, -3.78675490617752075195e-01) (14, -4.67553710937500000000e+00) (15, -4.31181132793426513672e-01) (16, -1.26934349536895751953e+00) (17, 1.23204088211059570312e+00) (18, -5.91942131519317626953e-01) (19, -7.02195227146148681641e-01) (20, -5.85807502269744873047e-01) (21, 3.03910636901855468750e+00) (22, 2.37381625175476074219e+00) (23, 1.27704596519470214844e+00) (24, -1.86399233341217041016e+00) (25, 3.07760179042816162109e-01) (26, 3.61898422241210937500e-01) (27, -6.66234970092773437500e-01) (7, -1.40929579734802246094e-01) (8, 3.27281713485717773438e-01) (9, 3.56550246477127075195e-01) (10, -4.32682609558105468750e+00) (11, 1.90868484973907470703e+00) (12, 5.45537531375885009766e-01) (13, 5.11993914842605590820e-02) (14, 6.50898742675781250000e+00) (15, -7.47637599706649780273e-02) (16, -3.11550527811050415039e-01) (17, 6.28240168094635009766e-01) (18, -2.03041523694992065430e-01) (19, -2.07746148109436035156e-01) (20, -8.92176479101181030273e-02) (21, -5.30925226211547851562e+00) (22, -2.62785649299621582031e+00) (23, 5.70109188556671142578e-01) (24, 2.91340351104736328125e+00) (25, 2.99766921997070312500e+00) (26, -1.07553735375404357910e-01) (27, -1.78228050470352172852e-01) (7, 7.70359985351562500000e+02) (8, -8.68013183593750000000e+02) (9, 1.50000000000000000000e+03) (10, 1.50000000000000000000e+03) (11, -3.30230674743652343750e+01) (12, 7.70508728027343750000e+02) (13, 9.74046478271484375000e+01) (14, 4.25145263671875000000e+02) (15, 7.70394531250000000000e+02) (16, 7.70466796875000000000e+02) (17, 1.50000000000000000000e+03) (18, 7.70511901855468750000e+02) (19, 1.04477026367187500000e+03) (20, 7.70884399414062500000e+02) (21, 9.82934665679931640625e+00) (22, 7.61481323242187500000e+01) (23, 1.50000000000000000000e+03) (24, 8.97445983886718750000e+02) (25, 9.96937561035156250000e+01) (26, 1.50000000000000000000e+03) (27, 7.70409973144531250000e+02) 
