FANN_FLO_2.1
num_layers=3
learning_rate=0.700000
connection_rate=1.000000
network_type=0
learning_momentum=0.000000
training_algorithm=2
train_error_function=1
train_stop_function=0
cascade_output_change_fraction=0.010000
quickprop_decay=-0.000100
quickprop_mu=1.750000
rprop_increase_factor=1.200000
rprop_decrease_factor=0.500000
rprop_delta_min=0.000000
rprop_delta_max=50.000000
rprop_delta_zero=0.100000
cascade_output_stagnation_epochs=12
cascade_candidate_change_fraction=0.010000
cascade_candidate_stagnation_epochs=12
cascade_max_out_epochs=150
cascade_min_out_epochs=50
cascade_max_cand_epochs=150
cascade_min_cand_epochs=50
cascade_num_candidate_groups=2
bit_fail_limit=3.49999994039535522461e-01
cascade_candidate_limit=1.00000000000000000000e+03
cascade_weight_multiplier=4.00000005960464477539e-01
cascade_activation_functions_count=10
cascade_activation_functions=3 5 7 8 10 11 14 15 16 17 
cascade_activation_steepnesses_count=4
cascade_activation_steepnesses=2.50000000000000000000e-01 5.00000000000000000000e-01 7.50000000000000000000e-01 1.00000000000000000000e+00 
layer_sizes=10 25 4 
scale_included=0
neurons (num_inputs, activation_function, activation_steepness)=(0, 0, 0.00000000000000000000e+00) (0, 0, 0.00000000000000000000e+00) (0, 0, 0.00000000000000000000e+00) (0, 0, 0.00000000000000000000e+00) (0, 0, 0.00000000000000000000e+00) (0, 0, 0.00000000000000000000e+00) (0, 0, 0.00000000000000000000e+00) (0, 0, 0.00000000000000000000e+00) (0, 0, 0.00000000000000000000e+00) (0, 0, 0.00000000000000000000e+00) (10, 5, 5.00000000000000000000e-01) (10, 5, 5.00000000000000000000e-01) (10, 5, 5.00000000000000000000e-01) (10, 5, 5.00000000000000000000e-01) (10, 5, 5.00000000000000000000e-01) (10, 5, 5.00000000000000000000e-01) (10, 5, 5.00000000000000000000e-01) (10, 5, 5.00000000000000000000e-01) (10, 5, 5.00000000000000000000e-01) (10, 5, 5.00000000000000000000e-01) (10, 5, 5.00000000000000000000e-01) (10, 5, 5.00000000000000000000e-01) (10, 5, 5.00000000000000000000e-01) (10, 5, 5.00000000000000000000e-01) (10, 5, 5.00000000000000000000e-01) (10, 5, 5.00000000000000000000e-01) (10, 5, 5.00000000000000000000e-01) (10, 5, 5.00000000000000000000e-01) (10, 5, 5.00000000000000000000e-01) (10, 5, 5.00000000000000000000e-01) (10, 5, 5.00000000000000000000e-01) (10, 5, 5.00000000000000000000e-01) (10, 5, 5.00000000000000000000e-01) (10, 5, 5.00000000000000000000e-01) (0, 5, 0.00000000000000000000e+00) (25, 5, 5.00000000000000000000e-01) (25, 5, 5.00000000000000000000e-01) (25, 5, 5.00000000000000000000e-01) (0, 5, 0.00000000000000000000e+00) 
connections (connected_to_neuron, weight)=(0, -1.34241923689842224121e-01) (1, 1.02415025234222412109e+00) (2, -6.91288709640502929688e-01) (3, 1.02590537071228027344e+00) (4, -3.99133741855621337891e-01) (5, 1.04977142810821533203e+00) (6, 1.09300482273101806641e+00) (7, -3.29148054122924804688e-01) (8, -4.80255663394927978516e-01) (9, -3.73191297054290771484e-01) (0, 4.23922091722488403320e-01) (1, 8.04844573140144348145e-02) (2, 3.54331791400909423828e-01) (3, 2.09806814789772033691e-01) (4, 3.20328414440155029297e-01) (5, 1.12601064145565032959e-01) (6, 1.24192647635936737061e-01) (7, 2.79561817646026611328e-01) (8, 1.74711257219314575195e-01) (9, 2.17584028840065002441e-01) (0, -5.77646121382713317871e-03) (1, -2.97644168138504028320e-01) (2, 3.32744860649108886719e+00) (3, 5.24823784828186035156e-01) (4, -1.23431101441383361816e-01) (5, -1.45978510379791259766e-01) (6, -1.91643297672271728516e-01) (7, -2.45425552129745483398e-02) (8, 1.06704056262969970703e-01) (9, 9.66806471347808837891e-01) (0, 4.86479341983795166016e-01) (1, 1.77733138203620910645e-01) (2, 3.60412038862705230713e-02) (3, 7.73629397153854370117e-02) (4, 2.98939168453216552734e-01) (5, 2.04924806952476501465e-01) (6, -3.45149170607328414917e-03) (7, 3.60972106456756591797e-01) (8, 3.93703788518905639648e-01) (9, 2.96465218067169189453e-01) (0, 8.70288372039794921875e-01) (1, -4.13269340991973876953e-01) (2, 1.03417468070983886719e+00) (3, -3.41839581727981567383e-01) (4, 9.77288603782653808594e-01) (5, -4.20548707246780395508e-01) (6, -4.46533262729644775391e-01) (7, 1.42836928367614746094e+00) (8, 1.41352760791778564453e+00) (9, 9.59229826927185058594e-01) (0, 1.91656756401062011719e+00) (1, 3.46368908882141113281e-01) (2, 6.54618367552757263184e-02) (3, -7.61386454105377197266e-02) (4, 8.67956519126892089844e-01) (5, 1.68197035789489746094e-01) (6, 6.35748654603958129883e-02) (7, 7.62005090713500976562e-01) (8, 3.42487961053848266602e-01) (9, 1.41839727759361267090e-01) (0, 1.11882877349853515625e+00) (1, 3.57746571302413940430e-01) (2, 2.22313150763511657715e-01) (3, -4.65918034315109252930e-01) (4, 1.12920546531677246094e+00) (5, -3.39607924222946166992e-01) (6, -5.56854367256164550781e-01) (7, 1.10051035881042480469e+00) (8, 2.68713325262069702148e-01) (9, 1.41303390264511108398e-01) (0, -5.51665306091308593750e-01) (1, 1.05998659133911132812e+00) (2, -6.78736448287963867188e-01) (3, 9.73006427288055419922e-01) (4, -4.36979055404663085938e-01) (5, 1.01957130432128906250e+00) (6, 1.02535700798034667969e+00) (7, -6.23320758342742919922e-01) (8, -6.77480280399322509766e-01) (9, -4.46037530899047851562e-01) (0, 4.43073570728302001953e-01) (1, 1.02040779590606689453e+00) (2, -6.97569727897644042969e-01) (3, 8.84084627032279968262e-02) (4, 2.95616775751113891602e-01) (5, 1.12592265009880065918e-01) (6, 1.14010773599147796631e-01) (7, 2.51379996538162231445e-01) (8, -5.12125730514526367188e-01) (9, -3.91003847122192382812e-01) (0, 4.68985766172409057617e-01) (1, 1.01858653128147125244e-01) (2, 9.75348204374313354492e-02) (3, -3.60937118530273437500e-02) (4, 3.96744489669799804688e-01) (5, 1.88655942678451538086e-01) (6, -5.18325529992580413818e-02) (7, 4.65444266796112060547e-01) (8, 4.39936369657516479492e-01) (9, 3.86710762977600097656e-01) (0, -4.15567904710769653320e-01) (1, 1.75159759819507598877e-02) (2, 2.89979964494705200195e-01) (3, 3.15467342734336853027e-02) (4, 3.25664162635803222656e-01) (5, 9.19391363859176635742e-02) (6, 1.50584653019905090332e-01) (7, 4.62329417467117309570e-01) (8, 3.01214545965194702148e-01) (9, 2.66282618045806884766e-01) (0, 7.08433866500854492188e-01) (1, -2.88575649261474609375e-01) (2, 1.28094291687011718750e+00) (3, -4.17497634887695312500e-01) (4, 1.03502583503723144531e+00) (5, -3.36470365524291992188e-01) (6, -4.31613117456436157227e-01) (7, 9.71256613731384277344e-01) (8, 1.06741952896118164062e+00) (9, 9.52947854995727539062e-01) (0, 7.04914033412933349609e-02) (1, 3.14764738082885742188e-01) (2, 2.57937937974929809570e-01) (3, 2.70598977804183959961e-01) (4, 1.51081249117851257324e-01) (5, 2.90760457515716552734e-01) (6, 2.67278730869293212891e-01) (7, 1.58045336604118347168e-01) (8, 1.88135638833045959473e-01) (9, 2.23415102809667587280e-02) (0, 3.98375928401947021484e-01) (1, 4.66594584286212921143e-02) (2, 2.44727328419685363770e-01) (3, -2.95213796198368072510e-02) (4, 4.32035118341445922852e-01) (5, 1.20376847684383392334e-01) (6, 1.31899461150169372559e-01) (7, 4.16283965110778808594e-01) (8, 4.08085703849792480469e-01) (9, 2.80741482973098754883e-01) (0, -3.17576557397842407227e-01) (1, 1.01041924953460693359e+00) (2, -6.50239408016204833984e-01) (3, 9.42785382270812988281e-01) (4, -3.20042550563812255859e-01) (5, 9.95395004749298095703e-01) (6, 8.41653227806091308594e-01) (7, -2.72497802972793579102e-01) (8, -4.92513477802276611328e-01) (9, -3.58190238475799560547e-01) (0, -2.57328243255615234375e+01) (1, 3.09779584407806396484e-01) (2, 9.95916724205017089844e-01) (3, 5.17207920551300048828e-01) (4, -1.68439555168151855469e+00) (5, 3.43226045370101928711e-01) (6, 5.14206528663635253906e-01) (7, -3.10624923706054687500e+01) (8, 7.34804123640060424805e-02) (9, 6.95254802703857421875e-02) (0, -2.19174408912658691406e+00) (1, 4.02616381645202636719e-01) (2, 1.37454152107238769531e+00) (3, 3.86146932840347290039e-01) (4, 9.76360589265823364258e-03) (5, 3.27824324369430541992e-01) (6, 3.29581767320632934570e-01) (7, -3.63733559846878051758e-01) (8, 6.03920482099056243896e-02) (9, -1.01046197116374969482e-01) (0, 4.91423428058624267578e-01) (1, 9.83508706092834472656e-01) (2, -5.05605638027191162109e-01) (3, -1.11446730792522430420e-01) (4, 3.17632406949996948242e-01) (5, -3.10213956981897354126e-02) (6, -1.41430020332336425781e-01) (7, 3.26527565717697143555e-01) (8, 2.75407999753952026367e-01) (9, -4.82703834772109985352e-01) (0, -3.84932070970535278320e-01) (1, 1.88565440475940704346e-02) (2, 2.56256759166717529297e-01) (3, 1.28800459206104278564e-02) (4, -4.62022393941879272461e-01) (5, 8.85069742798805236816e-02) (6, 2.77881473302841186523e-02) (7, -4.14044648408889770508e-01) (8, 2.22868606448173522949e-01) (9, 2.87028044462203979492e-01) (0, 1.06767378747463226318e-01) (1, 1.50218039751052856445e-01) (2, 4.30315256118774414062e-01) (3, 2.34148025512695312500e-01) (4, 1.12377695739269256592e-01) (5, 1.05670601129531860352e-01) (6, 1.66607305407524108887e-01) (7, 1.24493494629859924316e-01) (8, 2.46499717235565185547e-01) (9, 3.93970459699630737305e-01) (0, 1.87181472778320312500e-01) (1, 1.13593004643917083740e-01) (2, 2.54055291414260864258e-01) (3, 7.40149170160293579102e-02) (4, 3.87217164039611816406e-01) (5, 1.44240900874137878418e-01) (6, 1.29550080746412277222e-02) (7, 2.22673773765563964844e-01) (8, 2.02809244394302368164e-01) (9, 3.05058628320693969727e-01) (0, 7.18915700912475585938e-01) (1, -4.75977778434753417969e-01) (2, 1.38778543472290039062e+00) (3, -2.30014353990554809570e-01) (4, 8.87545704841613769531e-01) (5, -2.32284843921661376953e-01) (6, -2.99582093954086303711e-01) (7, 9.57499086856842041016e-01) (8, 1.01114189624786376953e+00) (9, 1.05302834510803222656e+00) (0, -1.79617628455162048340e-01) (1, 2.57949084043502807617e-01) (2, 1.78107070922851562500e+00) (3, 4.63828802108764648438e-01) (4, -3.54397892951965332031e-02) (5, 3.97780597209930419922e-01) (6, 4.21873211860656738281e-01) (7, -5.29803568497300148010e-03) (8, 6.54731541872024536133e-02) (9, 1.52640417218208312988e-01) (0, -2.19908598810434341431e-02) (1, 3.67799043655395507812e-01) (2, 3.65953862667083740234e-01) (3, 3.85450661182403564453e-01) (4, -1.10663563013076782227e-01) (5, 3.46631675958633422852e-01) (6, 3.50530922412872314453e-01) (7, -1.48412108421325683594e-01) (8, 2.46335249394178390503e-02) (9, 3.89670804142951965332e-02) (10, 8.82299137115478515625e+00) (11, 1.29624071121215820312e+01) (12, 5.21330881118774414062e+00) (13, 1.19536952972412109375e+01) (14, 5.25861692428588867188e+00) (15, 6.44681739807128906250e+00) (16, 5.19000053405761718750e+00) (17, 8.88327407836914062500e+00) (18, 8.73739719390869140625e+00) (19, 5.84600019454956054688e+00) (20, 5.83428287506103515625e+00) (21, 5.17782020568847656250e+00) (22, 8.22875595092773437500e+00) (23, 5.73513555526733398438e+00) (24, 8.87159729003906250000e+00) (25, 8.21573829650878906250e+00) (26, 6.14841461181640625000e+00) (27, -5.40539550781250000000e+01) (28, 5.82780504226684570312e+00) (29, 5.76532268524169921875e+00) (30, 5.75990104675292968750e+00) (31, 5.21293258666992187500e+00) (32, 7.31543302536010742188e+00) (33, 8.20469570159912109375e+00) (34, 5.29923677444458007812e+00) (10, 7.78055310249328613281e-01) (11, -1.26825416088104248047e+00) (12, -1.77377328276634216309e-01) (13, 2.70264506340026855469e-01) (14, -3.41774374246597290039e-01) (15, -5.97211301326751708984e-01) (16, -2.28539317846298217773e-01) (17, 7.64080166816711425781e-01) (18, 6.93682670593261718750e-01) (19, 3.35329651832580566406e-01) (20, 3.78480911254882812500e-01) (21, -3.47857296466827392578e-01) (22, -1.04785129427909851074e-01) (23, 3.67309570312500000000e-01) (24, 6.52252912521362304688e-01) (25, 1.97443217039108276367e-02) (26, 6.61288038827478885651e-04) (27, 4.36015272140502929688e+00) (28, 2.94373273849487304688e+00) (29, 5.04362702369689941406e-01) (30, 3.63008558750152587891e-01) (31, -3.08020472526550292969e-01) (32, 1.98426735401153564453e+00) (33, -4.81611937284469604492e-02) (34, -2.01686009764671325684e-01) (10, 6.98610365390777587891e-01) (11, 6.88643082976341247559e-02) (12, -2.79573142528533935547e-01) (13, 5.99448978900909423828e-01) (14, -2.23397418856620788574e-01) (15, 4.82507526874542236328e-01) (16, -1.65414392948150634766e-01) (17, 5.87265551090240478516e-01) (18, 7.05588519573211669922e-01) (19, 4.85840290784835815430e-01) (20, 4.08386319875717163086e-01) (21, -2.88642764091491699219e-01) (22, -9.90967601537704467773e-02) (23, 3.86055201292037963867e-01) (24, 6.66254580020904541016e-01) (25, -5.88520318269729614258e-02) (26, -5.76936006546020507812e-02) (27, 1.55252337455749511719e+00) (28, -2.62599921226501464844e+00) (29, 3.35490584373474121094e-01) (30, 3.49314898252487182617e-01) (31, -2.90060281753540039062e-01) (32, -2.29808139801025390625e+00) (33, -8.92385169863700866699e-02) (34, -1.51245772838592529297e-01) 
