FANN_FLO_2.1
num_layers=3
learning_rate=0.700000
connection_rate=1.000000
network_type=0
learning_momentum=0.000000
training_algorithm=2
train_error_function=1
train_stop_function=0
cascade_output_change_fraction=0.010000
quickprop_decay=-0.000100
quickprop_mu=1.750000
rprop_increase_factor=1.200000
rprop_decrease_factor=0.500000
rprop_delta_min=0.000000
rprop_delta_max=50.000000
rprop_delta_zero=0.100000
cascade_output_stagnation_epochs=12
cascade_candidate_change_fraction=0.010000
cascade_candidate_stagnation_epochs=12
cascade_max_out_epochs=150
cascade_min_out_epochs=50
cascade_max_cand_epochs=150
cascade_min_cand_epochs=50
cascade_num_candidate_groups=2
bit_fail_limit=3.49999994039535522461e-01
cascade_candidate_limit=1.00000000000000000000e+03
cascade_weight_multiplier=4.00000005960464477539e-01
cascade_activation_functions_count=10
cascade_activation_functions=3 5 7 8 10 11 14 15 16 17 
cascade_activation_steepnesses_count=4
cascade_activation_steepnesses=2.50000000000000000000e-01 5.00000000000000000000e-01 7.50000000000000000000e-01 1.00000000000000000000e+00 
layer_sizes=7 19 4 
scale_included=0
neurons (num_inputs, activation_function, activation_steepness)=(0, 0, 0.00000000000000000000e+00) (0, 0, 0.00000000000000000000e+00) (0, 0, 0.00000000000000000000e+00) (0, 0, 0.00000000000000000000e+00) (0, 0, 0.00000000000000000000e+00) (0, 0, 0.00000000000000000000e+00) (0, 0, 0.00000000000000000000e+00) (7, 5, 5.00000000000000000000e-01) (7, 5, 5.00000000000000000000e-01) (7, 5, 5.00000000000000000000e-01) (7, 5, 5.00000000000000000000e-01) (7, 5, 5.00000000000000000000e-01) (7, 5, 5.00000000000000000000e-01) (7, 5, 5.00000000000000000000e-01) (7, 5, 5.00000000000000000000e-01) (7, 5, 5.00000000000000000000e-01) (7, 5, 5.00000000000000000000e-01) (7, 5, 5.00000000000000000000e-01) (7, 5, 5.00000000000000000000e-01) (7, 5, 5.00000000000000000000e-01) (7, 5, 5.00000000000000000000e-01) (7, 5, 5.00000000000000000000e-01) (7, 5, 5.00000000000000000000e-01) (7, 5, 5.00000000000000000000e-01) (7, 5, 5.00000000000000000000e-01) (0, 5, 0.00000000000000000000e+00) (19, 5, 5.00000000000000000000e-01) (19, 5, 5.00000000000000000000e-01) (19, 5, 5.00000000000000000000e-01) (0, 5, 0.00000000000000000000e+00) 
connections (connected_to_neuron, weight)=(0, 9.34605747461318969727e-02) (1, 1.38242647051811218262e-01) (2, 1.03907980024814605713e-01) (3, 4.28001850843429565430e-01) (4, 1.29025205969810485840e-01) (5, 4.71485733985900878906e-01) (6, 4.96981739997863769531e-01) (0, 3.17342311143875122070e-01) (1, -5.86311444640159606934e-02) (2, 2.44523081928491592407e-02) (3, 6.53093159198760986328e-01) (4, -3.60291567631065845490e-03) (5, 5.47508656978607177734e-01) (6, 6.53267741203308105469e-01) (0, 1.49691088867187500000e+03) (1, 1.49999780273437500000e+03) (2, -1.49999450683593750000e+03) (3, -1.49966088867187500000e+03) (4, -1.49938732910156250000e+03) (5, -1.49812280273437500000e+03) (6, -1.49812280273437500000e+03) (0, 2.10231274366378784180e-01) (1, 3.60623806715011596680e-01) (2, -2.18342378735542297363e-01) (3, 2.45351850986480712891e-01) (4, 5.98214752972126007080e-02) (5, 3.53192389011383056641e-01) (6, 3.74095261096954345703e-01) (0, -1.27551672363281250000e+03) (1, -1.46286022949218750000e+03) (2, 7.40613342285156250000e+02) (3, 1.73720397949218750000e+01) (4, -1.86505947113037109375e+01) (5, 3.16489791870117187500e+01) (6, 3.16374301910400390625e+01) (0, 8.66003483533859252930e-02) (1, 9.89901423454284667969e-02) (2, 7.73959904909133911133e-02) (3, 3.51404756307601928711e-01) (4, 1.05546742677688598633e-01) (5, 3.59931558370590209961e-01) (6, 4.60662931203842163086e-01) (0, 1.49999645996093750000e+03) (1, 1.49999682617187500000e+03) (2, -1.49974865722656250000e+03) (3, -1.49999414062500000000e+03) (4, -1.49979150390625000000e+03) (5, -1.49973034667968750000e+03) (6, -1.49973034667968750000e+03) (0, -1.14848168945312500000e+03) (1, -1.46281982421875000000e+03) (2, 1.49948852539062500000e+03) (3, 7.43462562561035156250e+00) (4, 1.43147229003906250000e+03) (5, 3.51162815093994140625e+00) (6, 3.52104735374450683594e+00) (0, 1.49983386230468750000e+03) (1, 1.49997998046875000000e+03) (2, 5.23801025390625000000e+02) (3, 6.31641292572021484375e+00) (4, 7.77642883300781250000e+02) (5, 5.06770172119140625000e+01) (6, 5.07904319763183593750e+01) (0, -4.40872967243194580078e-01) (1, 1.30778288841247558594e+00) (2, 8.37921857833862304688e-01) (3, 5.28895616531372070312e-01) (4, -8.37905332446098327637e-02) (5, 6.18908286094665527344e-01) (6, 6.21263802051544189453e-01) (0, 1.49998461914062500000e+03) (1, 1.49999780273437500000e+03) (2, -1.49980993652343750000e+03) (3, -1.49894030761718750000e+03) (4, -1.49981127929687500000e+03) (5, -1.49759570312500000000e+03) (6, -1.49759570312500000000e+03) (0, -1.42685156250000000000e+03) (1, -1.44713916015625000000e+03) (2, 1.42544543457031250000e+03) (3, 1.58850660324096679688e+01) (4, -1.44673357009887695312e+01) (5, 7.80781888961791992188e+00) (6, 7.65760660171508789062e+00) (0, 5.27452754974365234375e+00) (1, 5.16774237155914306641e-01) (2, 2.73339962959289550781e+00) (3, 7.54793137311935424805e-02) (4, 2.20280230045318603516e-01) (5, 1.20963364839553833008e-01) (6, 3.35800647735595703125e-02) (0, -1.27553308105468750000e+03) (1, -1.46286096191406250000e+03) (2, 7.75069580078125000000e+01) (3, 1.64694583415985107422e+00) (4, -7.77693796157836914062e+00) (5, 8.33231449127197265625e+00) (6, 8.44084548950195312500e+00) (0, -2.32288980484008789062e+00) (1, 3.57043051719665527344e+00) (2, -2.85657310485839843750e+00) (3, -1.10779687762260437012e-01) (4, 5.65922796726226806641e-01) (5, -3.95595580339431762695e-02) (6, 3.98067124187946319580e-02) (0, 3.50176906585693359375e+00) (1, 1.72390346527099609375e+01) (2, 3.64923820495605468750e+01) (3, 7.99338281154632568359e-01) (4, 7.20813214778900146484e-01) (5, 8.45572888851165771484e-01) (6, 9.37820732593536376953e-01) (0, -1.27551770019531250000e+03) (1, -1.46286584472656250000e+03) (2, 4.82120018005371093750e+01) (3, 1.32180523872375488281e+00) (4, -1.94858341217041015625e+01) (5, 5.11114883422851562500e+00) (6, 5.11036539077758789062e+00) (0, 1.95011608302593231201e-02) (1, 1.19271405041217803955e-01) (2, -1.82735979557037353516e-01) (3, -1.60338103771209716797e-01) (4, 3.71528238058090209961e-01) (5, -1.19983069598674774170e-01) (6, -6.83412551879882812500e-02) (7, -1.99990704655647277832e-01) (8, 2.46898513287305831909e-02) (9, -4.64958101511001586914e-01) (10, -2.83054924011230468750e+00) (11, -7.83763647079467773438e-01) (12, -3.61091947555541992188e+00) (13, 1.71774685382843017578e+00) (14, -6.86077117919921875000e-01) (15, 1.26159703731536865234e+00) (16, 5.94038248062133789062e+00) (17, 8.02050352096557617188e-01) (18, -6.99407219886779785156e-01) (19, 3.25216507911682128906e+00) (20, -7.08499073982238769531e-01) (21, 9.18516445159912109375e+00) (22, 8.63895654678344726562e-01) (23, -7.18552827835083007812e-01) (24, 1.52902297973632812500e+01) (25, -7.39739060401916503906e-01) (7, -1.46700000000000000000e+03) (8, -1.45000000000000000000e+03) (9, 1.50000000000000000000e+03) (10, 4.57853210449218750000e+02) (11, 1.44880004882812500000e+03) (12, -8.94881164550781250000e+02) (13, 1.50000000000000000000e+03) (14, 1.44880004882812500000e+03) (15, -5.50553283691406250000e+02) (16, -1.29820373535156250000e+02) (17, 1.50000000000000000000e+03) (18, 1.34932421875000000000e+03) (19, 1.46310961914062500000e+03) (20, 1.44880004882812500000e+03) (21, 9.00314880371093750000e+02) (22, -2.79280700683593750000e+02) (23, 1.44880004882812500000e+03) (24, -2.18733856201171875000e+02) (25, 1.44880004882812500000e+03) (7, 4.94556570053100585938e+00) (8, 1.28760766983032226562e+01) (9, 2.32119059562683105469e+00) (10, 2.18380355834960937500e+00) (11, -1.29168069362640380859e+00) (12, 4.78443670272827148438e+00) (13, 2.28673958778381347656e+00) (14, -1.38432717323303222656e+00) (15, -8.16473841667175292969e-01) (16, -4.40546178817749023438e+00) (17, 3.11217522621154785156e+00) (18, -1.25995171070098876953e+00) (19, -2.27701950073242187500e+00) (20, -1.12429594993591308594e+00) (21, -7.14903163909912109375e+00) (22, -7.63749539852142333984e-01) (23, -1.20107042789459228516e+00) (24, -1.13083190917968750000e+01) (25, -1.18353033065795898438e+00) 
