FANN_FLO_2.1
num_layers=3
learning_rate=0.700000
connection_rate=1.000000
network_type=0
learning_momentum=0.000000
training_algorithm=2
train_error_function=1
train_stop_function=0
cascade_output_change_fraction=0.010000
quickprop_decay=-0.000100
quickprop_mu=1.750000
rprop_increase_factor=1.200000
rprop_decrease_factor=0.500000
rprop_delta_min=0.000000
rprop_delta_max=50.000000
rprop_delta_zero=0.100000
cascade_output_stagnation_epochs=12
cascade_candidate_change_fraction=0.010000
cascade_candidate_stagnation_epochs=12
cascade_max_out_epochs=150
cascade_min_out_epochs=50
cascade_max_cand_epochs=150
cascade_min_cand_epochs=50
cascade_num_candidate_groups=2
bit_fail_limit=3.49999994039535522461e-01
cascade_candidate_limit=1.00000000000000000000e+03
cascade_weight_multiplier=4.00000005960464477539e-01
cascade_activation_functions_count=10
cascade_activation_functions=3 5 7 8 10 11 14 15 16 17 
cascade_activation_steepnesses_count=4
cascade_activation_steepnesses=2.50000000000000000000e-01 5.00000000000000000000e-01 7.50000000000000000000e-01 1.00000000000000000000e+00 
layer_sizes=10 27 5 
scale_included=0
neurons (num_inputs, activation_function, activation_steepness)=(0, 0, 0.00000000000000000000e+00) (0, 0, 0.00000000000000000000e+00) (0, 0, 0.00000000000000000000e+00) (0, 0, 0.00000000000000000000e+00) (0, 0, 0.00000000000000000000e+00) (0, 0, 0.00000000000000000000e+00) (0, 0, 0.00000000000000000000e+00) (0, 0, 0.00000000000000000000e+00) (0, 0, 0.00000000000000000000e+00) (0, 0, 0.00000000000000000000e+00) (10, 5, 5.00000000000000000000e-01) (10, 5, 5.00000000000000000000e-01) (10, 5, 5.00000000000000000000e-01) (10, 5, 5.00000000000000000000e-01) (10, 5, 5.00000000000000000000e-01) (10, 5, 5.00000000000000000000e-01) (10, 5, 5.00000000000000000000e-01) (10, 5, 5.00000000000000000000e-01) (10, 5, 5.00000000000000000000e-01) (10, 5, 5.00000000000000000000e-01) (10, 5, 5.00000000000000000000e-01) (10, 5, 5.00000000000000000000e-01) (10, 5, 5.00000000000000000000e-01) (10, 5, 5.00000000000000000000e-01) (10, 5, 5.00000000000000000000e-01) (10, 5, 5.00000000000000000000e-01) (10, 5, 5.00000000000000000000e-01) (10, 5, 5.00000000000000000000e-01) (10, 5, 5.00000000000000000000e-01) (10, 5, 5.00000000000000000000e-01) (10, 5, 5.00000000000000000000e-01) (10, 5, 5.00000000000000000000e-01) (10, 5, 5.00000000000000000000e-01) (10, 5, 5.00000000000000000000e-01) (10, 5, 5.00000000000000000000e-01) (10, 5, 5.00000000000000000000e-01) (0, 5, 0.00000000000000000000e+00) (27, 5, 5.00000000000000000000e-01) (27, 5, 5.00000000000000000000e-01) (27, 5, 5.00000000000000000000e-01) (27, 5, 5.00000000000000000000e-01) (0, 5, 0.00000000000000000000e+00) 
connections (connected_to_neuron, weight)=(0, 3.48742723464965820312e+00) (1, 4.68218252062797546387e-02) (2, -8.80547165870666503906e-02) (3, 2.61035203933715820312e-01) (4, 5.69119751453399658203e-01) (5, 2.69023738801479339600e-02) (6, -2.62503437697887420654e-02) (7, -3.89185734093189239502e-02) (8, 1.31434231996536254883e-01) (9, 6.43474832177162170410e-02) (0, -8.35820972919464111328e-01) (1, 1.41374334692955017090e-01) (2, 1.51477411389350891113e-01) (3, 2.57179021835327148438e-01) (4, 1.13120391964912414551e-01) (5, 6.55186176300048828125e-01) (6, 1.30568921566009521484e-01) (7, 1.45321056246757507324e-01) (8, 1.10991246998310089111e-01) (9, 3.52660529315471649170e-02) (0, -7.43189156055450439453e-01) (1, 1.81503057479858398438e-01) (2, 9.43488359451293945312e-01) (3, -8.58407020568847656250e-02) (4, 4.53586906194686889648e-01) (5, 1.35015502572059631348e-01) (6, 2.39467635750770568848e-01) (7, 8.56305837631225585938e-01) (8, 9.94291603565216064453e-01) (9, 7.46465325355529785156e-01) (0, 1.49012565612792968750e+01) (1, 2.49209776520729064941e-02) (2, 1.18644580245018005371e-01) (3, -5.83449080586433410645e-02) (4, 5.02925515174865722656e-01) (5, -1.69673159718513488770e-01) (6, 8.79207849502563476562e-02) (7, 1.26261368393898010254e-01) (8, 2.01346978545188903809e-01) (9, 1.85428082942962646484e-01) (0, 5.93080632388591766357e-02) (1, 4.92639452219009399414e-01) (2, 1.58757001161575317383e-01) (3, 4.69869226217269897461e-01) (4, 1.41153251752257347107e-02) (5, 4.92152959108352661133e-01) (6, 6.02895498275756835938e-01) (7, 2.19448283314704895020e-01) (8, 1.98462337255477905273e-01) (9, 9.27343964576721191406e-02) (0, -9.51936095952987670898e-02) (1, -1.58393278717994689941e-01) (2, 9.11344826221466064453e-01) (3, 1.26006519421935081482e-02) (4, 4.01826381683349609375e-01) (5, 2.24272347986698150635e-02) (6, 5.89093081653118133545e-02) (7, 3.63455891609191894531e-01) (8, 7.79042184352874755859e-01) (9, 4.17948424816131591797e-01) (0, -1.34817981719970703125e+00) (1, 6.43547251820564270020e-02) (2, 9.40081596374511718750e-01) (3, -1.47248655557632446289e-02) (4, 4.88218039274215698242e-01) (5, 1.29974156618118286133e-01) (6, 3.56770791113376617432e-02) (7, 6.65171921253204345703e-01) (8, 5.03736257553100585938e-01) (9, 4.42214190959930419922e-01) (0, 3.98482590913772583008e-01) (1, 3.85151743888854980469e-01) (2, 1.52714163064956665039e-01) (3, 3.24610263109207153320e-01) (4, 1.03285528719425201416e-01) (5, 4.37093913555145263672e-01) (6, 3.54658663272857666016e-01) (7, 6.57545551657676696777e-02) (8, 1.27649784088134765625e-01) (9, 7.68047850579023361206e-03) (0, 2.89991378784179687500e+00) (1, 4.15449589490890502930e-01) (2, -5.39107859134674072266e-01) (3, 7.36502647399902343750e-01) (4, -2.83454626798629760742e-01) (5, 4.60608333349227905273e-01) (6, 6.77793323993682861328e-01) (7, -5.19001305103302001953e-01) (8, -3.19756925106048583984e-01) (9, -3.99631381034851074219e-01) (0, -2.30378627777099609375e+00) (1, 5.13686891645193099976e-03) (2, 9.51638519763946533203e-01) (3, 5.28578497469425201416e-02) (4, 1.79002374410629272461e-01) (5, 1.96566954255104064941e-01) (6, 1.52512878179550170898e-01) (7, 6.13271415233612060547e-01) (8, 8.86132478713989257812e-01) (9, 5.59881865978240966797e-01) (0, -5.33680140972137451172e-01) (1, 7.55056262016296386719e-01) (2, 1.29496231675148010254e-01) (3, -9.15825292468070983887e-02) (4, -4.82172071933746337891e-02) (5, 4.67386960983276367188e-01) (6, 4.72359538078308105469e-01) (7, 5.61348795890808105469e-01) (8, 4.46226030588150024414e-01) (9, 5.00364601612091064453e-01) (0, 2.95423579216003417969e+00) (1, 7.84266769886016845703e-01) (2, -3.54857593774795532227e-01) (3, 6.73554420471191406250e-01) (4, -2.83300727605819702148e-01) (5, 7.60241031646728515625e-01) (6, 8.50593328475952148438e-01) (7, -3.03759932518005371094e-01) (8, -2.28427276015281677246e-01) (9, -2.41935089230537414551e-01) (0, 1.14750489592552185059e-01) (1, 3.42415571212768554688e-01) (2, 1.55752703547477722168e-01) (3, 2.46124491095542907715e-01) (4, 9.15788635611534118652e-02) (5, 1.87960103154182434082e-01) (6, 2.49752387404441833496e-01) (7, 1.22562780976295471191e-01) (8, 6.09480869024991989136e-03) (9, 5.64731732010841369629e-02) (0, 9.87035453319549560547e-01) (1, -1.24818896874785423279e-02) (2, 4.48056310415267944336e-01) (3, -1.46403506398200988770e-01) (4, 6.73620462417602539062e-01) (5, -4.94305156171321868896e-02) (6, 3.55392768979072570801e-02) (7, 3.41141164302825927734e-01) (8, 2.75217503309249877930e-01) (9, 2.56732910871505737305e-01) (0, 1.01614809036254882812e+00) (1, 6.91529870033264160156e-01) (2, -5.39400637149810791016e-01) (3, 8.41512382030487060547e-01) (4, -2.72227168083190917969e-01) (5, 6.29558503627777099609e-01) (6, 7.09124267101287841797e-01) (7, -4.91788268089294433594e-01) (8, -5.69476842880249023438e-01) (9, -3.71869802474975585938e-01) (0, 2.92843055725097656250e+00) (1, 3.82025837898254394531e-01) (2, -5.61415076255798339844e-01) (3, 8.57004284858703613281e-01) (4, 3.25836017727851867676e-02) (5, -1.95259042084217071533e-02) (6, 4.64847594499588012695e-01) (7, -4.94439393281936645508e-01) (8, -3.23158562183380126953e-01) (9, -3.83318960666656494141e-01) (0, 1.37379646301269531250e-01) (1, 2.95939475297927856445e-01) (2, 6.17800466716289520264e-02) (3, 4.46592450141906738281e-01) (4, -9.78373661637306213379e-02) (5, 4.31928247213363647461e-01) (6, 3.23910742998123168945e-01) (7, -8.53082463145256042480e-02) (8, 3.76502610743045806885e-02) (9, 4.76944167166948318481e-03) (0, 2.12065935134887695312e-01) (1, 1.25562459230422973633e-01) (2, 2.04675033688545227051e-01) (3, 1.94902434945106506348e-01) (4, 1.71781674027442932129e-01) (5, 1.84596866369247436523e-01) (6, 3.09910565614700317383e-01) (7, 3.20011265575885772705e-02) (8, 1.69546008110046386719e-01) (9, 1.27245988696813583374e-02) (0, -1.17753601074218750000e+00) (1, 5.51390588283538818359e-01) (2, 1.43668754026293754578e-02) (3, 3.29779595136642456055e-01) (4, -1.76299065351486206055e-01) (5, 4.61104601621627807617e-01) (6, 5.59359908103942871094e-01) (7, -5.16518251970410346985e-03) (8, 8.22686776518821716309e-02) (9, -7.26073905825614929199e-02) (0, 4.64072614908218383789e-01) (1, -1.05202645063400268555e-02) (2, -4.67877164483070373535e-02) (3, 1.94793924689292907715e-01) (4, 4.60998564958572387695e-01) (5, -4.05908115208148956299e-02) (6, 2.50610262155532836914e-01) (7, 1.37949243187904357910e-01) (8, 1.13713972270488739014e-01) (9, 1.13995678722858428955e-01) (0, -7.18125939369201660156e-01) (1, 2.87018358707427978516e-01) (2, 1.66513562202453613281e-01) (3, 1.78159385919570922852e-01) (4, 8.47392231225967407227e-02) (5, 6.74392044544219970703e-01) (6, 2.55190402269363403320e-01) (7, 8.69004428386688232422e-02) (8, 1.48217946290969848633e-01) (9, 1.19677782058715820312e-01) (0, 3.60115170478820800781e-01) (1, 7.87771940231323242188e-01) (2, -4.79805171489715576172e-02) (3, 1.97689652442932128906e-01) (4, -2.73568600416183471680e-01) (5, 7.00947165489196777344e-01) (6, 6.71620666980743408203e-01) (7, 1.68695792555809020996e-01) (8, 1.99108794331550598145e-01) (9, 1.58695504069328308105e-01) (0, -9.37126994132995605469e-01) (1, 4.48032140731811523438e-01) (2, 2.32353225350379943848e-01) (3, 2.81306147575378417969e-01) (4, -7.11134746670722961426e-02) (5, 4.92958486080169677734e-01) (6, 1.89748466014862060547e-01) (7, 1.05470210313796997070e-01) (8, 6.70180618762969970703e-02) (9, 7.71062672138214111328e-02) (0, 1.08769035339355468750e+00) (1, 7.32192158699035644531e-01) (2, -5.70057630538940429688e-01) (3, 8.14574599266052246094e-01) (4, -1.95112064480781555176e-01) (5, 3.57235133647918701172e-01) (6, 6.76216840744018554688e-01) (7, -4.65754419565200805664e-01) (8, -4.31186974048614501953e-01) (9, -2.43720129132270812988e-01) (0, 8.85509908199310302734e-01) (1, 2.85211503505706787109e-01) (2, -1.04874476790428161621e-01) (3, 4.09186899662017822266e-01) (4, 4.67351675033569335938e-02) (5, 4.74337548017501831055e-01) (6, 4.08851712942123413086e-01) (7, -1.56349316239356994629e-01) (8, -2.18333497643470764160e-01) (9, -1.23934425413608551025e-01) (0, 1.40268492698669433594e+00) (1, -6.73653855919837951660e-02) (2, -2.40126460790634155273e-01) (3, 9.61067825555801391602e-02) (4, 5.55127918720245361328e-01) (5, 8.02468322217464447021e-03) (6, -1.46768698468804359436e-02) (7, -3.49326878786087036133e-01) (8, 1.08306057751178741455e-01) (9, 2.58150428533554077148e-01) (10, 5.12262046337127685547e-01) (11, 1.51974849700927734375e+01) (12, -4.66693639755249023438e-02) (13, -3.24208550155162811279e-02) (14, 4.68464756011962890625e+00) (15, -8.61318930983543395996e-02) (16, 4.12447676062583923340e-02) (17, 9.49898421764373779297e-01) (18, 3.31589192152023315430e-01) (19, -1.67051162570714950562e-02) (20, 1.17959117889404296875e+00) (21, 3.44496697187423706055e-01) (22, 1.09572887420654296875e+00) (23, -8.96673575043678283691e-02) (24, 3.82361978292465209961e-01) (25, 2.92459219694137573242e-01) (26, 1.14561378955841064453e+00) (27, 1.10819768905639648438e+00) (28, 3.47833424806594848633e-01) (29, 4.94497090578079223633e-01) (30, 2.87803983688354492188e+00) (31, 2.44557785987854003906e+00) (32, 1.70665049552917480469e+00) (33, 3.17933648824691772461e-01) (34, 3.20515602827072143555e-01) (35, 9.96692776679992675781e-02) (36, -2.42488123476505279541e-02) (10, 4.37505394220352172852e-01) (11, -2.23203468322753906250e+00) (12, -8.42880606651306152344e-02) (13, 4.04671370983123779297e-01) (14, -4.96853023767471313477e-01) (15, -1.11510187387466430664e-01) (16, -1.04267485439777374268e-01) (17, -4.20523971319198608398e-01) (18, 4.21365946531295776367e-01) (19, -9.34341549873352050781e-02) (20, 1.21182429790496826172e+00) (21, 3.28741252422332763672e-01) (22, 1.90951693058013916016e+00) (23, -8.79688113927841186523e-02) (24, 3.93731504678726196289e-01) (25, 4.05256032943725585938e-01) (26, 4.07533109188079833984e-01) (27, 1.13086700439453125000e+00) (28, 3.74344706535339355469e-01) (29, 4.45961117744445800781e-01) (30, -1.18419742584228515625e+00) (31, 5.26288866996765136719e-01) (32, 7.56772994995117187500e-01) (33, 4.23573195934295654297e-01) (34, 4.71777498722076416016e-01) (35, 7.36731290817260742188e-02) (36, -6.15006610751152038574e-02) (10, 3.70694994926452636719e-01) (11, -7.02562034130096435547e-02) (12, -1.30401864647865295410e-01) (13, 4.77576822042465209961e-01) (14, -1.76594927906990051270e-02) (15, 4.08249720931053161621e-03) (16, -8.38789492845535278320e-02) (17, 7.10841342806816101074e-02) (18, 4.84129577875137329102e-01) (19, -2.85566411912441253662e-02) (20, -1.05938267707824707031e+00) (21, 5.44523298740386962891e-01) (22, -1.17516243457794189453e+00) (23, -9.15042124688625335693e-03) (24, 5.43126821517944335938e-01) (25, 4.41111534833908081055e-01) (26, -3.60106855630874633789e-01) (27, 3.13197159767150878906e+00) (28, -1.15475341677665710449e-01) (29, 2.86227464675903320312e-01) (30, -2.49763429164886474609e-01) (31, 6.82651400566101074219e-02) (32, -1.04783225059509277344e+00) (33, 4.43609535694122314453e-01) (34, 3.86794179677963256836e-01) (35, 4.78573650121688842773e-01) (36, -5.56255802512168884277e-02) (10, 5.73071241378784179688e-01) (11, -6.89383447170257568359e-02) (12, 7.19408392906188964844e-02) (13, 5.04712224006652832031e-01) (14, -1.74818903207778930664e-01) (15, -4.77951625362038612366e-03) (16, 6.35693892836570739746e-02) (17, -7.98295810818672180176e-03) (18, 4.74794417619705200195e-01) (19, 9.11028590053319931030e-04) (20, -7.64770865440368652344e-01) (21, 4.62939918041229248047e-01) (22, -3.90491724014282226562e-01) (23, 1.10402256250381469727e-01) (24, 3.13650369644165039062e-01) (25, 4.31384176015853881836e-01) (26, -1.01501541212201118469e-02) (27, -2.71575050354003906250e+01) (28, -4.44276742637157440186e-02) (29, 4.13262903690338134766e-01) (30, -1.14417985081672668457e-01) (31, -1.09631858766078948975e-01) (32, -1.18391215801239013672e-01) (33, 3.92342656850814819336e-01) (34, 3.36892634630203247070e-01) (35, 7.43505895137786865234e-01) (36, 1.94319691509008407593e-02) 
